tree
version=v4
num_class=1
num_tree_per_iteration=1
label_index=0
max_feature_idx=41
objective=regression
feature_names=unemp_rising yield_curve_inverted pmi_below_50 cpi_above_3 cpi_trend_rising real_rate_negative credit_spread_widening rate_rising_sharply dollar_strengthening momentum_negative drawdown_severe vix_above_25 below_200ma unemp_3m_change yield_spread pmi_value cpi_yoy cpi_3m_change fed_funds_3m_change real_rate credit_spread credit_spread_3m_change nominal_10y_3m_change dxy_3m_pct_change sp500_6m_momentum sp500_30d_vol vix_level vix_1m_change sp500_drawdown sp500_200ma_distance nfci growth_count inflation_count financial_count market_count categories_stressed market_x_financial growth_x_market financial_x_growth vix_x_drawdown spread_x_momentum vix_x_spread_change
feature_infos=[0:1] [0:1] [0:1] [0:1] [0:1] [0:1] [0:1] [0:1] [0:1] [0:1] [0:1] [0:1] [0:1] [-0.80000000000000071:1.5000000000000009] [-0.16:2.8399999999999999] none [-1.9587610037622769:5.4975120783418374] [-4.9755478776899338:4.192065986094839] [-1.6599999999999999:0.5] [-0.17237744999999999:2.4963495299999998] [2.46:19.879999999999999] [-6.4800000000000004:11.52] [-5.2397427476899354:4.0908689060948404] [-0.12303658528880024:0.19201776665527093] [-0.46465827052278319:0.50237237136453206] [0:0.8120744744051025] [9.1400003433227539:80.860000610351562] [-36.299999237060547:46.30999755859375] [-0.5677538774277282:0] [-0.39645669615506601:0.2062345225138239] [-0.79059999999999997:3.0618099999999999] [0:2] [0:2] [0:3] [0:4] [0:4] [0:12] [0:8] [0:6] [0:41.986858670209259] [0:9.0084391905013828] [0:931.50720703125]
tree_sizes=2690 2767 2814 2809 2795 2830 2830 2849 2835 2827 2825 2833 2818 2846 2831 2851 2808 2845 2826 2861 2856 2840 2859 2859 2845 2828 2851 2853 2848 2856 2875 2862 2862 2867 2830 2854 2862 2862 2853 2833 2860 2865 2839 2856 2866 2850 2852 2863 2878 2902 2856 2869 2879 2893 2910 2896 2852 2897 2911 2894 2903 2901 2925 2897 2904 2906 2929 2930 2917 2927 2901 2923 2931 2920 2916 2924 2929 2927 2897 2945 2925 2934 2939 2932 2931 2939 2945 2945 2929 2917 2937 2938 2940 2946 2949 2960 2964 2957 2966 2950 2987 2980 2962 2982 2964 2987 2997 2994 2985 2998 2979 2995 2976 2969 2996 3010 3012 3028 2989 2989 2973 2987 2989 2985 2969 2987 3031 2990 3003 2996 2983 2991 2969 3007 2978 3010 3012 3002 2964 2997 2997 2993 2969 2991 2982 3014 3003 3006 3032 3017 2968 3016 3017 3034 3016 3018 3018 2954 3010 2989 3020 3024 3029 3032 3011 3018 3003 3023 2993 2993 3011 3028 3022 3027 3014 3039 3018 3002 3047 3009 2980 3029 3009 3015 3007 3011 3046 3021 3011 3007 3001 3004 3071 3013 2995 3079 3080 3032 3071 3040 3040 3018 3021 3040 3014 3013 3001 3007 2983 3016 2985 3032 3028 3001 2993 3013 3025 3018 3013 3014 2989 3023 3027 2997 3005 3019 3019 3019 3025 3020 3034 3036 3028 3042 3021 3035 3038 3011 3002 3000 3006 3015 3036 3043 3002 3047 3027 3046 3040 3015 3022 2974 3004 3014 3014 3020 3014 3020 3002 3051 3028 3004 3011 3040 3049 3001 3064 3002 3032 3033 3025 3028 3020 3033 3025 3025 3065 3042 3036 3007 3067 3005 3027 3022 3028 3001 3069 3029 3043 3048 3006 3035 3018 3021 3073 3030 3030 3010 3039 3015 3035 2988 3020 3051 3023 3041 3025 3054 3017 3055 3028 3026 3003 3039 3019 3039 3055 3045 3019 3018 3052 3017 3021 3042 3035 3029 3028 3048 3016 3039 3049 3022 3052 3022 3034 3014 3088 3028 3087 3034 3045 3042 3037 3039 3049 3022 3069 3017 3038 3007 3046 3016 3021 3056 3028 3050 3005 3042 3046 3021 3014 3039 3039 3044 3033

Tree=0
num_leaves=31
num_cat=0
split_feature=35 34 38 20 35 19 25 40 35 37 4 24 25 37 37 3 34 25 25 23 17 13 25 35 23 38 31 34 14 4
split_gain=40226.4 2842.9 1435.73 372.682 294.658 226.018 119.574 104.064 101.951 82.9761 78.3923 67.8742 82.9664 62.5023 46.0531 44.6359 38.8781 70.6293 37.7637 24.7061 19.8492 18.6947 18.215 16.0178 13.9824 13.4002 10.2707 13.0476 9.23553 8.28464
threshold=1.5000000000000002 2.5000000000000004 3.5000000000000004 6.2400000000000011 2.5000000000000004 1.0158826150000002 0.25437470650177496 2.430815927497036 1.0000000180025095e-35 1.0000000180025095e-35 1.0000000180025095e-35 -0.10460639051237895 0.31676933681260183 1.0000000180025095e-35 1.0000000180025095e-35 1.0000000180025095e-35 3.5000000000000004 0.20157692518226702 0.27739629221932466 0.016623892767715257 0.12398233499550927 0.19999999999999971 0.13609423228440684 1.0000000180025095e-35 0.020823381254555188 1.0000000180025095e-35 1.0000000180025095e-35 1.0000000180025095e-35 2.3750000000000004 1.0000000180025095e-35
decision_type=2 2 2 2 2 2 2 2 2 2 2 2 2 2 2 2 2 2 2 2 2 2 2 2 2 2 2 2 2 2
left_child=3 4 5 8 9 11 13 16 25 -2 21 12 -3 23 20 -4 17 -7 -13 -12 -10 -11 -15 -5 -17 29 27 -22 -24 -1
right_child=1 2 15 6 -6 7 -8 -9 14 10 19 18 -14 22 -16 24 -18 -19 -20 -21 26 -23 28 -25 -26 -27 -28 -29 -30 -31
leaf_value=4.024491446987537 4.1226683258041135 4.3796561244711647 4.4319743316050646 4.0435879481329975 4.3176561168417704 4.3903065019930771 4.1979303319981227 4.3331561187491188 4.0452971554656916 4.1261561305905747 4.2151561403359343 4.2702149494719928 4.3176561168417704 4.1617561344887184 4.1151414241682742 4.4473083281277894 4.3951561263785131 4.3310820457571264 4.3201054417114637 4.2766561262394358 4.0456561298753195 4.1868379554169559 4.0967311291481421 4.0816831555684905 4.4664796791646486 4.0445311298996023 4.0730058011877261 4.0726561279679707 4.1261561305905747 4.0345671557268803
leaf_weight=337 41 105 198 44 54 133 31 120 273 30 89 51 111 20 34 138 336 81 148 20 121 22 60 74 306 216 153 71 48 517
leaf_count=337 41 21 33 44 18 24 31 36 273 30 89 31 37 20 34 23 56 26 49 12 121 22 60 74 51 216 153 71 48 517
internal_value=4.20984 4.3694 4.39245 4.05156 4.21391 4.35738 4.10539 4.37534 4.0429 4.18617 4.20234 4.32839 4.3478 4.09373 4.05849 4.45172 4.38455 4.36789 4.30732 4.22644 4.05537 4.15183 4.11793 4.06748 4.46052 4.03341 4.06334 4.05564 4.10981 4.03059
internal_weight=3982 1983 1727 1999 256 1085 277 670 1722 202 161 415 216 246 652 642 550 214 199 109 618 52 128 118 444 1070 345 192 108 854
internal_count=2598 599 387 1999 212 280 277 142 1722 194 153 138 58 246 652 107 106 50 80 101 618 52 128 118 74 1070 345 192 108 854
is_linear=0
shrinkage=1


Tree=1
num_leaves=31
num_cat=0
split_feature=12 38 30 36 38 36 36 20 17 19 40 36 30 20 21 19 22 36 36 3 9 19 4 8 38 40 21 40 39 33
split_gain=35201.1 2362.55 1115.72 780.952 631.461 359.785 193.416 159.238 99.0035 94.036 74.4202 74.1478 54.9241 54.8216 52.3028 51.2692 49.1397 44.9582 44.8258 40.2839 22.7463 20.01 17.4733 12.094 11.6859 11.4695 8.92726 8.56639 8.11892 7.23401
threshold=1.0000000180025095e-35 3.5000000000000004 -0.14330999999999997 5.0000000000000009 1.5000000000000002 1.5000000000000002 5.0000000000000009 6.9350000000000014 1.2472951507022547 1.2610722200000002 0.57895239366823403 2.5000000000000004 0.21767500000000004 7.1800000000000006 -3.52 1.0183859400000002 0.30638455588981656 1.0000000180025095e-35 1.0000000180025095e-35 1.0000000180025095e-35 1.0000000180025095e-35 1.2482349550000003 1.0000000180025095e-35 1.0000000180025095e-35 1.0000000180025095e-35 0.60676754415330858 -0.46999999999999964 0.057988733788693902 3.6650279057214958 1.5000000000000002
decision_type=2 2 2 2 2 2 2 2 2 2 2 2 2 2 2 2 2 2 2 2 2 2 2 2 2 2 2 2 2 2
left_child=4 2 3 13 11 17 7 8 -4 14 -5 18 16 20 -9 -8 -7 22 24 -3 -2 25 -6 -21 29 -16 -20 -24 -17 -1
right_child=1 19 6 10 5 12 15 9 -10 -11 -12 -13 -14 -15 21 28 -18 -19 26 23 -22 -23 27 -25 -26 -27 -28 -29 -30 -31
leaf_value=-0.16873719864679945 -0.1272440468111346 0.21221946658510152 -0.0052247955057865541 0.068023295607417822 -0.1543793308734894 -0.087645465646471299 0.1325648819527975 0.15247244040171307 0.10361719131469727 0.15916333702040017 0.1532218259843913 -0.065759690620359926 0.025162486602430756 -0.012470963397728546 0.073870860708829686 0.15956693372822234 -0.0074272478620211295 -0.085099481845247571 -0.15113111794902589 0.22742797798580594 -0.074788641250662272 0.12867552439371746 -0.095175197720527654 0.2450560213724772 -0.15434951446950437 0.10333229402701061 -0.13471889545867494 -0.12761211034966941 0.17619577260084557 -0.15710853640037248
leaf_weight=871 31 198 39 48 60 35 123 72 45 161 55 21 46 28 39 112 42 69 197 144 62 72 24 300 224 216 143 134 213 158
leaf_count=871 31 33 37 26 60 35 33 16 15 37 14 21 40 28 21 25 42 69 197 24 62 20 24 50 224 72 143 134 36 158
internal_value=0.0011941 0.15234 0.113979 0.0123289 -0.145023 -0.089612 0.13483 0.117279 0.0530834 0.126908 0.113518 -0.159099 -0.0180655 -0.073807 0.113893 0.16006 -0.0438901 -0.120275 -0.16033 0.230975 -0.0922738 0.105399 -0.131408 0.239339 -0.164699 0.0988264 -0.144228 -0.122685 0.170465 -0.166952
internal_weight=3982 1958 1316 224 2024 410 1092 644 84 560 103 1614 123 121 399 448 77 287 1593 642 93 327 218 444 1253 255 340 158 325 1029
internal_count=2598 580 473 161 2018 404 312 218 52 166 40 1614 117 121 129 94 77 287 1593 107 93 113 218 74 1253 93 340 158 61 1029
is_linear=0
shrinkage=0.05


Tree=2
num_leaves=31
num_cat=0
split_feature=34 37 19 33 32 40 2 34 32 25 16 14 8 19 29 33 32 25 41 0 30 3 30 21 23 23 26 32 33 32
split_gain=32491.1 1727.3 972.913 469.858 416.961 301.724 298.162 157.603 101.718 78.7391 61.3215 60.6959 56.4037 46.5638 46.4464 44.6826 38.4207 37.6453 29.0656 34.2641 26.2513 24.9799 16.2462 14.1274 12.0375 11.4501 10.9984 10.8581 13.187 10.4443
threshold=2.5000000000000004 1.0000000180025095e-35 0.96230874500000019 1.5000000000000002 1.5000000000000002 0.38402440792181242 1.0000000180025095e-35 1.5000000000000002 1.0000000180025095e-35 0.22376116578829125 1.0000000180025095e-35 1.7900000000000003 1.0000000180025095e-35 0.66118479500000016 -1.0000000180025095e-35 1.5000000000000002 1.5000000000000002 0.2217013072429744 13.088350009918221 1.0000000180025095e-35 -0.50260999999999989 1.0000000180025095e-35 -0.37908499999999995 0.19999999999999998 0.0331614405810663 0.020823381254555188 32.024999618530281 1.0000000180025095e-35 1.0000000180025095e-35 1.0000000180025095e-35
decision_type=2 2 2 2 2 2 2 2 2 2 2 2 2 2 2 2 2 2 2 2 2 2 2 2 2 2 2 2 2 2
left_child=1 15 5 9 7 11 -5 13 -9 -4 -11 -2 17 -3 -6 16 22 -7 19 -10 -17 -8 27 -18 -15 -23 -19 28 -1 -22
right_child=2 4 3 6 14 12 21 8 18 10 -12 -13 -14 24 -16 20 23 26 -20 -21 29 25 -24 -25 -26 -27 -28 -29 -30 -31
leaf_value=-0.19278770685195923 0.044412932609806638 -0.13054338733355206 0.16202494725078143 0.16194194840009396 0.085110291454099846 0.14221283676831617 0.20529032389322921 -0.086182986572384837 -0.067323073485623233 0.13153993709414613 0.072593992041243657 -0.057945634734351194 0.14099959294397868 -0.083523321798048833 0.0065391297693605773 -0.14595517011321321 -0.14277794908304683 0.07167693879906735 0.038673700349671505 0.0059685848796596896 -0.14406965507401362 0.21541535750679347 -0.14082405064840739 -0.11563822974132587 -0.040311455726623535 0.23276402591879852 0.098303398137451509 -0.15478834487715198 -0.16191752441227436 -0.11413709616738987
leaf_weight=40 28 60 147 325 62 46 180 48 23 153 62 30 127 83 27 196 122 49 35 52 36 138 159 79 20 306 186 754 256 153
leaf_count=40 18 60 27 61 26 11 30 48 23 39 32 28 30 83 27 196 122 25 27 52 36 23 159 79 20 51 62 754 256 153
internal_value=0.00113439 -0.127081 0.160231 0.182289 -0.0344857 0.0981771 0.200776 -0.0610359 -0.0254511 0.133823 0.114542 -0.00853115 0.113346 -0.0955293 0.0612741 -0.148231 -0.152353 0.100848 0.00105014 -0.0165075 -0.133134 0.221002 -0.155719 -0.132111 -0.0751327 0.227372 0.0927515 -0.157974 -0.166089 -0.119839
internal_weight=3982 2205 1777 1311 410 466 949 321 158 362 215 58 408 163 89 1795 1410 281 110 75 385 624 1209 201 103 444 235 1050 296 189
internal_count=2598 2161 437 263 366 174 165 313 150 98 71 46 128 163 53 1795 1410 98 102 75 385 104 1209 201 103 74 87 1050 296 189
is_linear=0
shrinkage=0.05


Tree=3
num_leaves=31
num_cat=0
split_feature=34 36 38 38 32 25 17 38 36 38 17 32 14 25 25 3 29 24 32 36 29 23 38 28 4 34 32 34 33 32
split_gain=29323.2 1384.18 1272.96 495.863 298.393 236.912 228.968 161.72 157.005 140.171 85.9998 56.2496 39.6282 37.5074 36.1714 32.5222 29.8402 26.8144 21.2747 19.0185 16.3405 10.3337 9.81264 9.51079 9.01314 7.92812 7.71618 6.02293 5.66661 8.79214
threshold=2.5000000000000004 1.5000000000000002 3.5000000000000004 1.5000000000000002 1.0000000180025095e-35 0.2695034792553595 0.92206959804768152 1.5000000000000002 10.500000000000002 1.5000000000000002 0.30316384599711199 1.0000000180025095e-35 2.3750000000000004 0.28222551967167014 0.11946560849934985 1.0000000180025095e-35 -0.01692099419485919 -0.03659295091955294 1.5000000000000002 2.5000000000000004 0.0051981850371037412 0.020823381254555188 1.0000000180025095e-35 -0.080923170771891442 1.0000000180025095e-35 1.0000000180025095e-35 1.0000000180025095e-35 1.5000000000000002 1.5000000000000002 1.0000000180025095e-35
decision_type=2 2 2 2 2 2 2 2 2 2 2 2 2 2 2 2 2 2 2 2 2 2 2 2 2 2 2 2 2 2
left_child=1 9 4 16 5 -2 11 8 10 18 13 -5 20 -6 -13 -4 -3 -9 22 26 -11 -17 28 -8 -22 -20 -18 -16 29 -1
right_child=2 3 15 6 7 -7 23 17 -10 12 -12 14 -14 -15 27 21 19 -19 25 -21 24 -23 -24 -25 -26 -27 -28 -29 -30 -31
leaf_value=-0.16003853559494019 -0.043531617985629462 -0.04945362589576028 0.19163621266682943 -0.077934918292733135 0.03826543093275498 0.092492531188955049 0.047072207964956758 0.15711863888634578 0.16133490445321066 -0.07631067037582398 0.12918866308111895 -0.069952006231654776 -0.070103215954520487 0.086840493240160868 -0.015241214397706485 0.20464460262353867 -0.13490134502450626 0.12607724354380653 -0.13800028132610634 -0.069626987628314804 -0.13625233003071377 0.2211258451923046 -0.13957489303533469 0.083964311469603203 -0.11427855104207994 -0.11615835768835886 -0.10987751844317416 0.009746507016208137 -0.14201576905914501 -0.14914248710842934
leaf_weight=260 41 22 198 43 51 146 25 405 114 22 114 22 55 180 38 138 48 84 122 23 70 306 241 58 140 63 86 66 158 643
leaf_count=260 39 22 33 43 35 50 17 72 19 22 28 22 55 66 38 23 48 21 122 23 70 51 241 24 140 63 86 64 158 643
internal_value=0.00107767 -0.120727 0.15222 -0.040356 0.120392 0.0626691 0.00484402 0.131779 0.110463 -0.140254 0.0936531 -0.0285565 -0.108262 0.0761161 -0.0117051 0.208488 -0.10399 0.151786 -0.146428 -0.111632 -0.117308 0.216003 -0.148683 0.0728522 -0.121603 -0.130562 -0.118841 0.000616378 -0.150751 -0.15228
internal_weight=3982 2205 1777 431 1135 187 252 948 459 1774 345 169 287 231 126 642 179 489 1487 157 232 444 1302 83 210 185 134 104 1061 903
internal_count=2598 2161 437 387 330 89 208 241 148 1774 129 167 287 101 124 107 179 93 1487 157 232 74 1302 41 210 185 134 102 1061 903
is_linear=0
shrinkage=0.05


Tree=4
num_leaves=31
num_cat=0
split_feature=35 34 35 20 35 19 36 30 36 35 4 37 37 36 40 37 3 19 4 17 3 23 39 17 23 4 4 36 33 40
split_gain=26806.3 1876.45 930.985 237.167 197.226 123.057 103.61 100.327 77.1876 69.4974 49.6147 46.8365 37.8239 36.9488 45.009 29.7091 29.3513 26.0514 22.7853 25.4964 21.027 19.6639 18.7676 14.09 9.32617 8.6584 8.20617 5.19276 4.4095 6.35456
threshold=1.5000000000000002 2.5000000000000004 2.5000000000000004 6.2400000000000011 2.5000000000000004 1.0158826150000002 3.5000000000000004 0.71333500000000016 2.5000000000000004 1.0000000180025095e-35 1.0000000180025095e-35 1.0000000180025095e-35 1.0000000180025095e-35 7.0000000000000009 0.80590015532672032 1.0000000180025095e-35 1.0000000180025095e-35 0.66118479500000016 1.0000000180025095e-35 -0.13645379662566906 1.0000000180025095e-35 0.016623892767715257 7.4280366338752293 0.12398233499550927 0.020823381254555188 1.0000000180025095e-35 1.0000000180025095e-35 1.5000000000000002 1.0000000180025095e-35 0.28114360906619223
decision_type=2 2 2 2 2 2 2 2 2 2 2 2 2 2 2 2 2 2 2 2 2 2 2 2 2 2 2 2 2 2
left_child=3 4 5 9 10 13 -7 -4 12 26 20 -12 27 22 -15 23 -9 -10 19 -8 -2 -13 -3 -11 -18 -14 28 -5 29 -1
right_child=1 2 7 8 -6 6 18 16 17 15 11 21 25 14 -16 -17 24 -19 -20 -21 -22 -23 -24 -25 -26 -27 -28 -29 -30 -31
leaf_value=-0.14852270751759628 -0.07345425066622821 0.0537367021920378 0.15466291904449464 -0.13381395292282106 0.089827146795060903 0.08432568386197091 0.11553043906967486 0.18205440694635566 -0.063480967596957566 -0.13321537080701892 -0.057342006934100187 0.0040879679017103796 -0.10444583254201073 0.091719763432903334 0.14547136851719447 -0.076721275028060476 0.19441237656966501 0.0014717400575486514 0.15339341219602057 0.15016318572464812 -0.011623114729300141 0.058954583124723285 0.088702539939664857 -0.11801238388255023 0.21006953357871061 -0.072479038676996344 -0.13955709975096225 -0.11079016874233882 -0.14547078674342359 -0.17443653345108034
leaf_weight=69 44 49 168 50 54 96 124 198 38 273 29 89 28 102 63 34 138 26 213 93 20 20 177 345 306 87 671 48 294 36
leaf_count=69 44 27 28 50 18 32 34 33 38 273 29 89 28 36 12 34 23 26 36 16 20 12 59 345 51 87 671 48 294 36
internal_value=0.00102379 0.131275 0.150002 -0.128185 0.00494617 0.115499 0.131291 0.189062 -0.0852448 -0.135093 -0.0177448 -0.000869546 -0.0997126 0.0942546 0.112243 -0.122225 0.198064 -0.0370939 0.141776 0.130373 -0.054132 0.0141552 0.0811215 -0.124728 0.205203 -0.0802623 -0.142934 -0.122537 -0.148612 -0.157407
internal_weight=3982 1983 1727 1999 256 917 526 810 277 1722 202 138 213 391 165 652 642 64 430 217 64 109 226 618 444 115 1070 98 399 105
internal_count=2598 599 387 1999 212 252 118 135 277 1722 194 130 213 134 48 652 107 64 86 50 64 101 86 618 74 115 1070 98 399 105
is_linear=0
shrinkage=0.05


Tree=5
num_leaves=31
num_cat=0
split_feature=35 34 38 37 17 32 36 38 33 35 32 36 37 40 16 34 16 35 32 41 32 32 33 38 34 23 38 36 28 39
split_gain=24135 1575.83 760.061 197.641 187.504 171.732 90.4314 67.7516 90.2262 55.7026 47.5123 43.441 39.2413 35.9047 35.8209 34.8332 34.9746 29.0527 19.534 13.4993 11.4018 9.54122 8.93824 7.74696 16.5914 6.26778 5.17608 4.99825 2.72769 1.50402
threshold=1.5000000000000002 2.5000000000000004 2.5000000000000004 1.0000000180025095e-35 0.92206959804768152 1.0000000180025095e-35 2.5000000000000004 1.0000000180025095e-35 2.5000000000000004 1.0000000180025095e-35 1.0000000180025095e-35 2.5000000000000004 1.0000000180025095e-35 0.95359630341324919 3.6846557641050719 3.5000000000000004 4.6546167163402661 1.0000000180025095e-35 1.0000000180025095e-35 95.141148700714126 1.0000000180025095e-35 1.0000000180025095e-35 1.0000000180025095e-35 1.0000000180025095e-35 1.0000000180025095e-35 0.020823381254555188 1.0000000180025095e-35 1.0000000180025095e-35 -0.090286409354967165 2.0535704462665252
decision_type=2 2 2 2 2 2 2 2 2 2 2 2 2 2 2 2 2 2 2 2 2 2 2 2 2 2 2 2 2 2
left_child=3 4 5 6 10 13 9 8 19 21 -2 17 -12 -3 -4 16 -9 -5 -19 -7 -11 22 -1 24 -22 -16 27 -23 -6 -14
right_child=1 2 14 11 28 7 -8 15 -10 20 12 -13 29 -15 25 -17 -18 18 -20 -21 23 26 -24 -25 -26 -27 -28 -29 -30 -31
leaf_value=-0.16652686439062422 -0.070291138567575601 0.031689596567726269 0.17010448529170111 -0.11838804198348003 0.054757308820262557 0.082349395450543275 -0.046643308035152799 0.10577232924060545 0.14533219072553846 -0.12797935793436871 -0.058727397178781449 -0.0080114906565064477 0.019378572533076462 0.084153271856762121 0.18537291420830623 0.14729801936027331 0.14583619435628256 -0.10941639316493068 -0.06349668544271718 0.11004423777262369 -0.12730097014879443 -0.13721590221592928 -0.14042058075821051 -0.10434657103055484 -0.10447434858039573 0.1987865647525652 -0.1254665836780029 -0.12504288935661317 0.073760379642119706 0.0043910303871546475
leaf_weight=38 41 44 234 46 28 165 34 138 108 193 29 21 22 126 126 312 90 29 115 60 194 538 239 154 135 282 169 100 58 70
leaf_count=38 41 30 39 46 16 57 34 37 18 193 29 21 20 42 21 52 15 29 115 16 194 538 239 154 135 47 169 100 24 70
internal_value=-0.000488046 0.125578 0.142897 -0.122027 0.00790313 0.116551 -0.127411 0.125504 0.107766 -0.128971 -0.0237736 -0.0762525 -0.00801152 0.0705744 0.1857 0.136442 0.121587 -0.083795 -0.0727444 0.0897347 -0.117707 -0.135995 -0.144002 -0.113602 -0.117934 0.194644 -0.133247 -0.135308 0.0675733 0.00797501
internal_weight=3938 1933 1685 2005 248 1043 1794 873 333 1760 162 211 121 170 642 540 228 190 144 225 676 1084 277 483 329 408 807 638 86 92
internal_count=2579 574 374 2005 200 267 1794 195 91 1760 160 211 119 72 107 104 52 190 144 73 676 1084 277 483 329 68 807 638 40 90
is_linear=0
shrinkage=0.05


Tree=6
num_leaves=31
num_cat=0
split_feature=35 34 38 37 17 32 19 36 35 32 36 14 36 37 19 26 28 35 32 39 32 32 33 38 34 38 36 27 28 4
split_gain=21781.9 1422.19 685.955 178.371 169.222 154.988 83.0486 81.6143 50.2716 42.8799 40.4527 71.2964 39.2055 35.4153 32.9735 28.6391 28.0444 26.2201 17.6295 11.0366 10.2901 8.61094 8.06676 6.99163 14.9737 4.67141 4.51092 4.41373 2.46174 2.36818
threshold=1.5000000000000002 2.5000000000000004 2.5000000000000004 1.0000000180025095e-35 0.92206959804768152 1.0000000180025095e-35 0.53855919000000008 2.5000000000000004 1.0000000180025095e-35 1.0000000180025095e-35 3.5000000000000004 1.3900000000000001 2.5000000000000004 1.0000000180025095e-35 1.2329812900000003 37.880001068115241 -0.2551193448548863 1.0000000180025095e-35 1.0000000180025095e-35 3.3580116900562875 1.0000000180025095e-35 1.0000000180025095e-35 1.0000000180025095e-35 1.0000000180025095e-35 1.0000000180025095e-35 1.0000000180025095e-35 1.0000000180025095e-35 2.3899998664855979 -0.090286409354967165 1.0000000180025095e-35
decision_type=2 2 2 2 2 2 2 2 2 2 2 2 2 2 2 2 2 2 2 2 2 2 2 2 2 2 2 2 2 2
left_child=3 4 5 7 9 15 16 8 21 -2 11 -8 17 -11 -4 -3 -7 -5 -19 -12 -10 22 -1 24 -22 26 -23 -16 -6 -29
right_child=1 2 14 12 28 6 10 -9 20 13 19 -13 -14 -15 27 -17 -18 18 -20 -21 23 25 -24 -25 -26 -27 -28 29 -30 -31
leaf_value=-0.15820052372781856 -0.06677657990920835 0.03525274680182338 0.15738123485020228 -0.1124686361654945 0.052019441948505121 0.11676743858390384 0.13854438463846844 -0.044311142310856241 -0.12158039147372074 -0.055791027484268979 0.11942412800259061 0.075068373241643796 -0.0076109163374418311 0.0075762573487894698 0.17715707901985414 0.080292788147926342 0.078126727088733972 -0.10394557878888887 -0.060321850776672362 0.13880770439492132 -0.12093592433585335 -0.13035510809448131 -0.13339954774250048 -0.099129243465987116 -0.099250630581820459 -0.11919325442003781 -0.11879074358940125 0.18303966639954369 0.070072355442519843 0.1921793370019822
leaf_weight=38 41 50 168 46 28 72 90 34 193 29 90 87 21 92 186 120 135 29 115 399 194 538 239 154 135 169 100 162 58 126
leaf_count=38 41 32 28 46 16 17 15 34 193 29 20 29 21 90 31 40 47 29 115 67 194 538 239 154 135 169 100 27 24 21
internal_value=-0.000463644 0.119299 0.135752 -0.115925 0.00750797 0.110723 0.119229 -0.12104 -0.122522 -0.022585 0.127826 0.107344 -0.0724399 -0.00761094 0.176415 0.0670457 0.091567 -0.0796052 -0.0691072 0.13524 -0.111821 -0.129195 -0.136802 -0.107922 -0.112038 -0.126585 -0.128543 0.183161 0.0641947 0.187038
internal_weight=3938 1933 1685 2005 248 1043 873 1794 1760 162 666 177 211 121 642 170 207 190 144 489 676 1084 277 483 329 807 638 474 86 288
internal_count=2579 574 374 2005 200 267 195 1794 1760 160 131 44 211 119 107 72 64 190 144 87 676 1084 277 483 329 807 638 79 40 48
is_linear=0
shrinkage=0.05


Tree=7
num_leaves=31
num_cat=0
split_feature=35 34 38 20 35 32 38 38 33 35 25 32 37 40 3 37 34 25 37 41 32 32 38 34 38 35 39 34 32 33
split_gain=19658.1 1283.52 619.075 177.591 140.453 139.877 56.6478 55.2438 74.1642 50.6105 50.3546 33.9795 30.6893 30.193 29.6793 29.2775 28.7763 50.2185 19.5744 11.4085 9.93479 7.99282 7.67321 10.8056 7.40498 5.91512 5.60741 5.02713 3.77789 6.40882
threshold=1.5000000000000002 2.5000000000000004 2.5000000000000004 6.2400000000000011 2.5000000000000004 1.0000000180025095e-35 2.5000000000000004 1.0000000180025095e-35 2.5000000000000004 1.0000000180025095e-35 0.25437470650177496 1.0000000180025095e-35 1.0000000180025095e-35 0.95359630341324919 1.0000000180025095e-35 1.0000000180025095e-35 3.5000000000000004 0.20805710276735667 1.0000000180025095e-35 95.141148700714126 1.0000000180025095e-35 1.0000000180025095e-35 1.0000000180025095e-35 1.0000000180025095e-35 1.0000000180025095e-35 1.0000000180025095e-35 4.8559976464647869 1.0000000180025095e-35 1.0000000180025095e-35 1.0000000180025095e-35
decision_type=2 2 2 2 2 2 2 2 2 2 2 2 2 2 2 2 2 2 2 2 2 2 2 2 2 2 2 2 2 2
left_child=3 4 5 9 6 13 11 8 19 24 15 -2 -13 -3 -4 25 17 -9 21 -7 -17 -11 23 -23 27 -5 -16 28 29 -1
right_child=1 2 14 10 -6 7 -8 16 -10 18 -12 12 -14 -15 26 20 -18 -19 -20 -21 -22 22 -24 -25 -26 -27 -28 -29 -30 -31
leaf_value=-0.15029049860803706 -0.062539391666650776 0.028035387295213616 0.15339851949968908 -0.11469748478669387 0.078452951378292515 0.074113059400609055 0.064829093217849729 0.12756467047664855 0.13130886289808485 -0.11548896767199041 -0.011065154659251373 -0.054484236538410197 0.0029816558991459388 0.076145450652591762 0.16893800647779444 -0.09209943127632142 0.13301137441243879 0.078918533523877468 -0.067485545982014047 0.099573071400324509 -0.056995352644186759 -0.11485882348415116 -0.094136488102129767 -0.093923359126835082 -0.11420092755019383 -0.090271225396324609 0.18079020345312918 -0.11475425202931677 -0.12383846719393739 -0.12772536277770996
leaf_weight=38 40 44 234 39 54 165 21 144 108 192 30 30 103 126 174 25 312 84 33 60 104 191 151 91 211 68 234 112 537 183
leaf_count=38 40 30 39 39 18 57 9 26 18 192 30 30 103 42 29 25 52 26 33 16 104 191 151 91 211 68 39 112 537 183
internal_value=-0.000440461 0.113334 0.128965 -0.110129 0.00713257 0.105187 -0.0127195 0.113267 0.0972504 -0.115949 -0.0720812 -0.0221329 -0.00998058 0.0636934 0.167594 -0.0798375 0.123144 0.109642 -0.105016 0.0809024 -0.0637985 -0.106998 -0.103232 -0.108103 -0.122604 -0.0991743 0.175736 -0.124642 -0.126103 -0.131605
internal_weight=3938 1933 1685 2005 248 1043 194 873 333 1739 266 173 133 170 642 236 540 228 658 225 129 625 433 282 1081 107 408 870 758 221
internal_count=2579 574 374 2005 200 267 182 195 91 1739 266 173 133 72 107 236 104 52 658 73 129 625 433 282 1081 107 68 870 758 221
is_linear=0
shrinkage=0.05


Tree=8
num_leaves=31
num_cat=0
split_feature=35 34 38 20 22 32 19 24 36 35 36 16 30 19 37 25 24 37 19 4 39 32 32 38 34 38 34 27 32 33
split_gain=17741.5 1158.38 558.715 160.276 133.927 126.239 67.5022 54.5082 48.9618 45.676 33.3398 59.3989 33.2514 27.4682 25.3602 22.9716 22.5901 17.6659 15.1445 8.87804 8.61694 8.17149 7.21353 6.92508 9.75209 6.68299 4.53698 3.59575 3.40955 5.78396
threshold=1.5000000000000002 2.5000000000000004 2.5000000000000004 6.2400000000000011 0.30638455588981656 1.0000000180025095e-35 0.53855919000000008 -0.0070989839528693968 2.5000000000000004 1.0000000180025095e-35 3.5000000000000004 4.6546167163402661 0.21767500000000004 1.2329812900000003 1.0000000180025095e-35 0.35548037273708655 -0.11287774061997578 1.0000000180025095e-35 0.66118479500000016 1.0000000180025095e-35 3.3580116900562875 1.0000000180025095e-35 1.0000000180025095e-35 1.0000000180025095e-35 1.0000000180025095e-35 1.0000000180025095e-35 1.0000000180025095e-35 2.3899998664855979 1.0000000180025095e-35 1.0000000180025095e-35
decision_type=2 2 2 2 2 2 2 2 2 2 2 2 2 2 2 2 2 2 2 2 2 2 2 2 2 2 2 2 2 2
left_child=3 4 5 9 12 15 16 -6 14 25 11 -8 19 -4 -5 -3 -7 22 -10 -2 -12 -16 -11 24 -24 26 28 -15 29 -1
right_child=1 2 13 8 7 6 10 -9 18 17 20 -13 -14 27 21 -17 -18 -19 -20 -21 -22 -23 23 -25 -26 -27 -28 -29 -30 -31
leaf_value=-0.14277597414819818 -0.059651564240455625 0.032821451843931128 0.14184225598971051 -0.099528379572762393 0.070474911731882736 0.10457823165257772 0.067300704703933886 -0.0070203516515903175 -0.049546443322493187 -0.10971452308197815 0.10811053143607247 0.12523891925811767 0.0032290343750725711 0.15995258156971268 -0.092833761657987332 0.072709948998891702 0.070214786019289141 -0.064111267526944488 0.0033580135243634381 -0.025594648021844125 0.12523799874728783 -0.058525117695331579 -0.1091158801972554 -0.089429664256556934 -0.089227192611484749 -0.10849088229839271 -0.10901654160448485 0.16887126896116469 -0.11764654553802321 -0.12133909463882447
leaf_weight=38 50 52 168 90 78 75 87 32 31 192 90 90 57 186 21 118 132 33 24 31 399 100 191 151 91 211 112 288 537 183
leaf_count=38 50 32 28 90 30 18 29 32 31 192 20 15 57 31 21 40 46 33 24 31 67 100 191 151 91 211 112 48 537 183
internal_value=-0.000418439 0.107667 0.122517 -0.104623 0.00677595 0.0999279 0.107604 0.0479308 -0.0684772 -0.110152 0.115355 0.0967608 -0.0260287 0.159214 -0.0794293 0.0605088 0.0826653 -0.0997653 -0.0264609 -0.0466174 0.122086 -0.0644795 -0.101648 -0.0980709 -0.102698 -0.116474 -0.11841 0.165372 -0.119798 -0.125025
internal_weight=3938 1933 1685 2005 248 1043 873 110 266 1739 666 177 138 642 211 170 207 658 55 81 489 121 625 433 282 1081 870 474 758 221
internal_count=2579 574 374 2005 200 267 195 62 266 1739 131 44 138 107 211 72 64 658 55 81 87 121 625 433 282 1081 870 79 758 221
is_linear=0
shrinkage=0.05


Tree=9
num_leaves=31
num_cat=0
split_feature=35 34 38 20 17 32 19 36 35 32 36 14 40 19 29 2 19 38 35 36 23 39 34 38 4 32 33 23 32 34
split_gain=16011.7 1045.44 504.24 144.649 124.421 113.931 60.9207 44.188 41.2226 31.9014 30.0892 53.6075 26.1991 24.79 21.184 17.6362 13.6679 11.3704 11.2537 10.2656 10.1222 7.77679 7.56576 6.0314 5.56492 4.12897 5.60771 3.32029 3.2082 3.18397
threshold=1.5000000000000002 2.5000000000000004 2.5000000000000004 6.2400000000000011 0.92206959804768152 1.0000000180025095e-35 0.53855919000000008 2.5000000000000004 1.0000000180025095e-35 1.0000000180025095e-35 3.5000000000000004 1.3900000000000001 0.95359630341324919 1.2329812900000003 -0.087491131299575781 1.0000000180025095e-35 0.66118479500000016 1.0000000180025095e-35 1.0000000180025095e-35 1.5000000000000002 -1.0000000180025095e-35 3.3580116900562875 1.0000000180025095e-35 1.0000000180025095e-35 1.0000000180025095e-35 1.0000000180025095e-35 1.0000000180025095e-35 0.020823381254555188 1.0000000180025095e-35 1.0000000180025095e-35
decision_type=2 2 2 2 2 2 2 2 2 2 2 2 2 2 2 2 2 2 2 2 2 2 2 2 2 2 2 2 2 2
left_child=3 4 5 8 9 12 14 15 23 -2 11 -8 -3 -4 -7 -5 -9 22 -17 24 -11 -12 -10 25 -19 26 -1 -15 -24 -27
right_child=1 2 13 7 -6 6 10 16 17 20 21 -13 -14 27 -16 18 -18 19 -20 -21 -22 -23 28 -25 -26 29 -28 -29 -30 -31
leaf_value=-0.13563717352716548 -0.057483531861770444 0.024267301090400331 0.13475014084861392 -0.092715481780041228 0.055044183929905649 0.099752050876617426 0.1189769744873047 -0.047069121512674519 -0.1044430286639992 0.00277477381317768 0.10270500116878085 0.063935671044492173 0.06908256799455674 0.15014832890222943 0.066475220927686415 -0.096708846092224132 0.0031901129366209112 -0.10236297602003271 -0.056548188930576282 -0.059915935248136522 -0.02911979514573302 0.11897610381133575 -0.10257859400340491 -0.10306633527245002 -0.084958180173343389 -0.11176421273798028 -0.11474870139589677 0.15962100303036042 -0.084765832633762583 -0.10145323276519776
leaf_weight=38 41 44 168 87 86 75 90 31 283 86 90 87 126 126 132 21 24 66 103 32 35 399 35 211 151 537 208 348 91 87
leaf_count=38 41 30 28 87 40 18 15 31 283 86 20 29 42 21 46 21 24 66 103 32 33 67 35 211 151 537 208 58 91 87
internal_value=-0.000397516 0.102284 0.116391 -0.0993916 0.00643715 0.0949315 0.102224 -0.0650533 -0.104644 -0.0193666 0.109587 0.0919228 0.0574833 0.151254 0.078532 -0.0754578 -0.0251378 -0.094777 -0.0633496 -0.0863532 -0.00645093 0.115981 -0.0999054 -0.11065 -0.0902518 -0.112489 -0.117975 0.157103 -0.0897138 -0.110327
internal_weight=3938 1933 1685 2005 248 1043 873 266 1739 162 666 177 170 642 207 211 55 658 124 249 121 489 409 1081 217 870 246 474 126 624
internal_count=2579 574 374 2005 200 267 195 266 1739 160 131 44 72 107 64 211 55 658 124 249 119 87 409 1081 217 870 246 79 126 624
is_linear=0
shrinkage=0.05


Tree=10
num_leaves=31
num_cat=0
split_feature=35 35 20 36 20 30 36 19 37 36 35 37 16 19 18 37 16 18 37 26 27 17 40 32 38 23 32 7 31 36
split_gain=14067.6 854.484 522.848 141.999 118.365 85.8368 63.6207 53.6446 46.3099 37.982 36.6818 35.5245 32.9776 21.7808 20.5936 19.5916 19.2794 15.2779 15.2568 12.758 8.82477 8.61237 7.17623 6.43141 5.47927 5.35678 3.64115 4.31303 3.56132 5.21845
threshold=1.5000000000000002 2.5000000000000004 6.9350000000000014 3.5000000000000004 6.2400000000000011 0.71333500000000016 7.0000000000000009 1.2482349550000003 5.0000000000000009 2.5000000000000004 1.0000000180025095e-35 2.5000000000000004 -0.16877715661123271 0.73182474000000008 -0.014999999999999949 1.0000000180025095e-35 3.6846557641050719 -0.014999999999999949 1.0000000180025095e-35 26.640000343322757 4.3199996948242205 0.12398233499550927 0.2465230497128878 1.0000000180025095e-35 1.0000000180025095e-35 0.030167781572736255 1.0000000180025095e-35 1.0000000180025095e-35 1.0000000180025095e-35 1.0000000180025095e-35
decision_type=2 2 2 2 2 2 2 2 2 2 2 2 2 2 2 2 2 2 2 2 2 2 2 2 2 2 2 2 2 2
left_child=4 2 11 8 10 20 7 12 -4 15 24 14 -5 -8 22 -6 -7 -11 21 -14 -3 -12 -2 -17 26 -18 27 -1 29 -23
right_child=1 5 3 6 9 16 13 -9 -10 17 18 -13 19 -15 -16 23 25 -19 -20 -21 -22 28 -24 -25 -26 -27 -28 -29 -30 -31
leaf_value=-0.12627957761287689 -0.022024247281510256 0.096526286502679193 -2.2076725445944686e-05 0.092491964747508371 -0.089986810696368325 0.13256145879334094 0.087849222159967197 0.11536543899112278 0.060393513696534298 0.0045759011229330841 -0.098130208625100482 0.024128499245498241 0.036399254232162129 0.11367134670171229 -0.047588519417289379 -0.08479941934347153 0.14274140675862632 -0.04778096079826355 -0.055853415016205082 0.064056719782573934 0.11722816583272573 -0.097702783032467488 0.015845532774586567 -0.053421329547849943 -0.098156443871228044 0.15543783929612903 -0.10485953169041558 -0.10895699882993892 -0.080630938450495404 -0.080788309636868935
leaf_weight=44 29 96 58 96 98 204 123 72 70 22 289 41 54 243 69 20 120 38 31 183 111 114 22 89 226 270 608 196 150 76
leaf_count=44 29 22 54 24 98 34 32 12 24 22 289 29 32 41 69 20 20 38 31 61 19 114 18 89 226 45 608 196 150 76
internal_value=-0.00257284 0.0963791 0.0669273 0.0817879 -0.0946016 0.135354 0.0898847 0.0762308 0.0330177 -0.0636112 -0.0993735 -0.0160524 0.0677693 0.104993 -0.0297809 -0.0737642 0.145016 -0.0285834 -0.0900966 0.057755 0.107627 -0.0917843 -0.00568826 -0.0591788 -0.105074 0.151531 -0.106918 -0.112133 -0.0863902 -0.090937
internal_weight=3862 1861 1060 899 2001 801 771 405 128 267 1734 161 333 366 120 207 594 60 660 237 207 629 51 109 1074 390 848 240 340 190
internal_count=2566 565 425 280 2001 140 202 129 78 267 1734 145 117 73 116 207 99 60 660 93 41 629 47 109 1074 65 848 240 340 190
is_linear=0
shrinkage=0.05


Tree=11
num_leaves=31
num_cat=0
split_feature=35 34 38 20 35 19 26 36 37 35 32 36 24 3 37 23 18 37 24 17 40 32 38 8 34 35 38 34 37 26
split_gain=12696 959.834 409.114 106.824 77.7383 76.0153 36.7536 34.2787 34.2685 33.1054 31.631 25.8298 32.0946 17.9937 17.6814 17.4208 13.7883 13.7693 11.968 7.77266 6.39427 5.80435 4.94505 4.8345 3.63611 3.30019 3.21409 4.70966 2.8456 2.72508
threshold=1.5000000000000002 2.5000000000000004 2.5000000000000004 6.2400000000000011 2.5000000000000004 1.0158826150000002 41.060001373291023 2.5000000000000004 1.0000000180025095e-35 1.0000000180025095e-35 1.0000000180025095e-35 7.0000000000000009 -0.1005372772386177 1.0000000180025095e-35 1.0000000180025095e-35 0.018983030207191613 -0.014999999999999949 1.0000000180025095e-35 -0.03659295091955294 0.12398233499550927 0.52739875778276024 1.0000000180025095e-35 1.0000000180025095e-35 1.0000000180025095e-35 1.0000000180025095e-35 1.0000000180025095e-35 1.0000000180025095e-35 1.0000000180025095e-35 1.5000000000000002 25.440000534057621
decision_type=2 2 2 2 2 2 2 2 2 2 2 2 2 2 2 2 2 2 2 2 2 2 2 2 2 2 2 2 2 2
left_child=3 4 5 9 8 11 18 14 -2 22 -10 20 -13 -4 25 -12 -9 19 29 -11 -3 -16 24 -15 -1 -5 27 -21 -23 -7
right_child=1 2 13 7 -6 6 -8 16 10 17 15 12 -14 23 21 -17 -18 -19 -20 26 -22 28 -24 -25 -26 -27 -28 -29 -30 -31
leaf_value=-0.10284931343858657 -0.048745756768263308 0.036624157641615189 0.12627293728945549 -0.0954451518588596 0.063336616907364293 0.098664663136005415 0.06762499834100405 0.0043471061201258146 -0.04581344174221158 -0.09322369888579557 0.0015851456121626227 0.10650162426630656 0.060834678564267823 0.13560433705647787 -0.080559448897838601 0.052746836924925447 -0.045391912875991119 -0.053060744847020794 0.086810818575976195 -0.092817645951321248 0.060024189796637407 -0.066838450091225771 -0.093248621262280285 0.14766595557883935 -0.093179049449307591 -0.077032833504226975 -0.076599390248457591 -0.076748892586482209 -0.045781852611724072 0.10755489667256674
leaf_weight=736 52 35 228 45 39 120 96 22 32 289 99 75 79 120 20 20 38 31 114 114 176 21 226 270 112 53 150 76 68 306
leaf_count=736 52 19 38 45 13 23 30 22 32 289 99 14 30 20 20 10 38 31 28 114 60 21 226 45 112 53 150 76 68 52
internal_value=-0.0024442 0.0915601 0.105443 -0.0898715 -0.00131742 0.085694 0.0961321 -0.0604307 -0.0137386 -0.0944048 -0.00168321 0.0675059 0.0830751 0.137431 -0.070076 0.0101837 -0.0271543 -0.0855918 0.1012 -0.087195 0.0561427 -0.0562198 -0.0998206 0.143955 -0.101572 -0.0854875 -0.0820707 -0.0863901 -0.0507503 0.105051
internal_weight=3862 1861 1619 2001 242 1001 636 267 203 1734 151 365 154 618 207 119 60 660 540 629 211 109 1074 390 848 98 340 190 89 426
internal_count=2566 565 359 2001 206 256 133 267 193 1734 141 123 44 103 207 109 60 660 103 629 79 109 1074 65 848 98 340 190 89 75
is_linear=0
shrinkage=0.05


Tree=12
num_leaves=31
num_cat=0
split_feature=35 35 20 36 20 33 19 33 37 18 25 35 37 37 18 37 37 28 27 37 17 22 39 3 40 32 33 35 25 38
split_gain=11458.1 700.309 429.712 119.412 96.4088 68.7875 52.4578 47.2679 36.9401 36.7228 32.2813 29.8776 28.6538 19.6599 16.2463 14.3524 12.4268 11.6791 10.1915 7.89163 7.01483 6.55241 6.28204 5.76629 5.6484 4.88592 5.12582 4.6314 3.66348 3.47285
threshold=1.5000000000000002 2.5000000000000004 6.9350000000000014 3.5000000000000004 6.2400000000000011 2.5000000000000004 1.0158826150000002 2.5000000000000004 5.0000000000000009 -0.28999999999999976 0.25437470650177496 1.0000000180025095e-35 2.5000000000000004 1.0000000180025095e-35 -0.014999999999999949 3.5000000000000004 1.0000000180025095e-35 -0.44167331749613092 3.4949998855590807 3.5000000000000004 0.12398233499550927 0.27934863851280173 6.910554693464614 1.0000000180025095e-35 0.16431868945306224 1.0000000180025095e-35 1.0000000180025095e-35 1.0000000180025095e-35 0.21019203181401142 1.0000000180025095e-35
decision_type=2 2 2 2 2 2 2 2 2 2 2 2 2 2 2 2 2 2 2 2 2 2 2 2 2 2 2 2 2 2
left_child=4 2 12 8 11 9 7 15 28 18 13 25 14 27 24 22 20 -8 -3 -19 -13 -15 -5 -7 -2 26 -1 -6 -4 -27
right_child=1 5 3 6 10 23 17 -9 -10 -11 -12 16 -14 21 -16 -17 -18 19 -20 -21 -22 -23 -24 -25 -26 29 -28 -29 -30 -31
leaf_value=-0.1174670630379727 -0.02348709053670367 0.081427428286562686 -0.011767594749107957 0.035321171713992953 -0.090672894053988984 0.12835044595930312 0.075206960903273695 0.10671439322214278 0.053518037455422544 0.12681978405385777 -0.008543536526461443 -0.088562514088970576 0.021179191441070746 -0.063037276268005371 -0.043053817155136578 0.073015152153215912 -0.050407707883465686 0.086325723391641448 0.10284226407175479 0.10268212159474691 -0.077967159261598307 -0.03926698679941288 0.056068131305553298 0.14028265070032192 0.0098501864268823909 -0.094542485475540172 -0.097782603338652962 -0.0702790283585248 0.013500306640680021 -0.086513447313639469
leaf_weight=38 24 93 32 50 45 162 72 63 70 138 30 289 41 50 69 114 31 109 138 228 340 69 135 270 27 608 255 73 26 173
leaf_count=38 24 21 32 28 45 27 20 13 24 23 30 289 29 50 69 33 31 25 24 38 340 69 45 45 23 608 255 73 22 173
internal_value=-0.00232199 0.0869821 0.0603194 0.0737916 -0.0853779 0.122266 0.0812165 0.0673536 0.029068 0.106412 -0.0574091 -0.0896845 -0.0149075 -0.0635947 -0.0272371 0.0590601 -0.0813122 0.0934864 0.0942207 0.0973918 -0.0828353 -0.0492545 0.0504608 0.135808 -0.00583794 -0.0948296 -0.100336 -0.0780564 -0.000440604 -0.092764
internal_weight=3862 1861 1060 899 2001 801 771 362 128 369 267 1734 161 237 120 299 660 409 231 337 629 119 185 432 51 1074 293 118 58 781
internal_count=2566 565 425 280 2001 140 202 119 78 68 267 1734 145 237 116 106 660 83 45 63 629 119 73 72 47 1074 293 118 54 781
is_linear=0
shrinkage=0.05


Tree=13
num_leaves=31
num_cat=0
split_feature=34 35 35 20 37 36 35 33 37 13 37 35 32 32 16 41 35 19 39 23 32 32 3 32 33 40 34 38 41 38
split_gain=10353.8 559.304 423.215 151.986 66.6791 66.053 62.0112 38.186 36.366 29.3837 28.3325 26.7937 25.8106 22.016 19.4419 18.4786 16.8757 15.4373 13.4188 13.1315 12.6129 6.37303 5.20408 5.01034 4.24436 4.23061 4.19578 8.5635 2.78308 2.46611
threshold=2.5000000000000004 1.5000000000000002 2.5000000000000004 6.9350000000000014 1.0000000180025095e-35 7.0000000000000009 2.5000000000000004 2.5000000000000004 3.5000000000000004 -0.30000000000000021 1.0000000180025095e-35 1.0000000180025095e-35 1.0000000180025095e-35 1.0000000180025095e-35 4.9446429905419711 69.062700090408342 1.0000000180025095e-35 0.73182474000000008 4.7710292859716459 0.018983030207191613 1.0000000180025095e-35 1.0000000180025095e-35 1.0000000180025095e-35 1.0000000180025095e-35 1.0000000180025095e-35 0.83761075183379008 1.0000000180025095e-35 1.0000000180025095e-35 10.552600173950195 1.0000000180025095e-35
decision_type=2 2 2 2 2 2 2 2 2 2 2 2 2 2 2 2 2 2 2 2 2 2 2 2 2 2 2 2 2 2
left_child=1 4 3 9 11 8 10 14 15 -2 -3 23 -12 -10 -4 -5 -6 -7 -11 -14 -18 -13 -9 24 -1 -15 27 -23 -22 -25
right_child=2 6 7 5 16 17 -8 22 13 18 12 21 19 25 -16 -17 20 -19 -20 -21 28 26 -24 29 -26 -27 -28 -29 -30 -31
leaf_value=-0.11159370478830839 0.037135864742870991 -0.044736047604909318 0.097254369826543896 0.016394200784211256 -0.078755700230598455 0.076105717721024188 0.055933686097462978 0.12193291923146191 0.055947997157735047 -0.0013552903790365568 -0.041807195730507375 -0.08503846812595442 0.0013110219547995414 0.089863643795251857 0.12248313307762147 0.054130142057935399 -0.07610477461264685 0.097844796710544163 -0.057943310737609867 0.045729870023205881 -0.04113140010171467 -0.084997649285016144 0.13326852162679037 -0.089783174107151642 -0.093619253911262704 0.074900409739504584 -0.067523412748768524 -0.068928828718615512 -0.02051120586693287 -0.083135200672679488
leaf_weight=38 29 52 210 49 50 123 39 162 133 22 32 206 99 96 120 96 26 243 20 20 90 181 270 620 242 93 148 153 20 180
leaf_count=38 15 52 35 31 50 32 13 27 45 20 32 206 99 19 20 32 26 41 20 10 90 181 45 620 242 24 148 153 20 180
internal_value=-0.00220589 -0.0735133 0.0917864 0.0686494 -0.0823935 0.0746348 -0.00181117 0.119235 0.0621703 -0.00157384 -0.012905 -0.0853894 -0.00194332 0.0715333 0.106428 0.041378 -0.053917 0.090539 -0.028302 0.00877637 -0.0447851 -0.0776774 0.129018 -0.0903022 -0.0960586 0.0825008 -0.0745314 -0.0776368 -0.0373823 -0.0882874
internal_weight=3862 2196 1666 904 1954 833 242 762 467 71 203 1768 151 322 330 145 186 366 42 119 136 688 432 1080 280 189 482 334 110 800
internal_count=2566 2160 406 279 1954 224 206 127 151 55 193 1768 141 88 55 63 186 73 40 109 136 688 72 1080 280 43 482 334 110 800
is_linear=0
shrinkage=0.05


Tree=14
num_leaves=31
num_cat=0
split_feature=34 36 38 38 32 39 19 22 38 39 36 16 32 8 3 34 41 25 34 24 32 3 19 39 11 38 32 4 29 24
split_gain=9344.29 389.807 369.684 138.445 99.6403 89.236 57.2199 54.5659 46.1753 22.5216 22.4476 44.1174 17.0346 15.3802 13.1843 12.5403 12.413 8.74864 8.29647 6.74151 5.87773 5.33632 4.77617 4.77782 4.37368 3.9079 3.38106 3.3489 2.7401 2.22544
threshold=2.5000000000000004 1.5000000000000002 2.5000000000000004 1.5000000000000002 1.0000000180025095e-35 11.151640519249908 0.53855919000000008 0.70777678106386099 1.5000000000000002 6.910554693464614 3.5000000000000004 4.6546167163402661 1.0000000180025095e-35 1.0000000180025095e-35 1.0000000180025095e-35 1.0000000180025095e-35 21.601900167465214 0.11946560849934985 1.0000000180025095e-35 -0.028462926054180656 1.0000000180025095e-35 1.0000000180025095e-35 1.2482349550000003 3.871669902451687 1.0000000180025095e-35 1.0000000180025095e-35 1.5000000000000002 1.0000000180025095e-35 0.011095493995605393 0.25994474559305952
decision_type=2 2 2 2 2 2 2 2 2 2 2 2 2 2 2 2 2 2 2 2 2 2 2 2 2 2 2 2 2 2
left_child=1 8 4 16 5 -2 9 12 18 -6 11 -8 -5 -11 -4 21 20 -14 25 -9 -3 27 23 -12 -16 -1 -20 -10 -22 -17
right_child=2 3 14 7 6 -7 10 19 15 13 22 -13 17 -15 24 29 -18 -19 26 -21 28 -23 -24 -25 -26 -27 -28 -29 -30 -31
leaf_value=-0.086360064511205648 -0.033182565593405773 -0.077078779339790349 0.108317081970081 -0.04629576872838171 0.024758797034621239 0.053484357718159174 0.043276111722331159 0.045511449789818456 -0.079263187292963277 0.050980302691459659 0.076054773796563863 0.09306386311848959 -0.037223273515701295 0.081200775720071117 0.11823834819023056 -0.036408628005048509 -0.021084382403641938 -0.00058831170714587322 -0.078637481035466972 0.015415816083550455 -0.041465134173631672 -0.04389201890338551 0.097366884621706881 0.089658880960941323 0.12882948045929274 -0.079208027403405379 -0.065609681433525635 -0.065376746544131531 -0.060572220177151442 -0.056052469781466899
leaf_weight=1020 38 50 228 38 50 136 88 49 64 108 87 90 20 69 198 46 20 88 179 30 24 22 132 250 192 235 69 135 86 21
leaf_count=1020 36 50 38 38 30 46 36 21 64 36 20 15 20 16 33 46 20 88 179 22 24 22 22 46 32 235 69 135 86 21
internal_value=-0.0020956 -0.0698377 0.0871971 -0.0255381 0.0691103 0.0345571 0.0759893 0.000609153 -0.0798551 0.0543906 0.0835672 0.0684497 -0.0175033 0.0627612 0.117869 -0.0615147 -0.0582222 -0.00737256 -0.0833695 0.0340827 -0.0628645 -0.0672594 0.0893047 0.0861468 0.123452 -0.0850208 -0.0750128 -0.0698427 -0.0564034 -0.0425657
internal_weight=3862 2196 1666 405 1048 174 874 225 1791 227 647 178 146 177 618 288 180 108 1503 79 160 221 469 337 390 1255 248 199 110 67
internal_count=2566 2160 406 369 303 82 221 189 1791 82 139 51 146 52 103 288 180 108 1503 43 160 221 88 66 65 1255 248 199 110 67
is_linear=0
shrinkage=0.05


Tree=15
num_leaves=31
num_cat=0
split_feature=35 34 35 37 34 35 28 33 33 37 23 35 19 17 36 36 20 32 35 29 32 35 32 32 33 3 38 34 27 38
split_gain=8408.3 645.856 269.911 76.6969 64.1554 59.8405 47.8913 38.4238 32.0255 31.0179 30.1631 29.2769 24.0064 21.4531 19.6255 18.8864 16.8648 15.8002 15.7163 12.8199 10.6109 7.88202 4.69737 4.6078 3.99037 3.58595 2.7415 6.04494 1.9913 1.8579
threshold=1.5000000000000002 2.5000000000000004 2.5000000000000004 1.0000000180025095e-35 3.5000000000000004 2.5000000000000004 -0.18761461518117434 2.5000000000000004 2.5000000000000004 1.0000000180025095e-35 0.026871951339724424 1.0000000180025095e-35 1.0158826150000002 -0.056079146911769344 2.5000000000000004 2.5000000000000004 8.1050000000000022 1.0000000180025095e-35 3.5000000000000004 -0.23926219136730653 1.0000000180025095e-35 1.0000000180025095e-35 1.0000000180025095e-35 1.0000000180025095e-35 1.0000000180025095e-35 1.0000000180025095e-35 1.0000000180025095e-35 1.0000000180025095e-35 4.774997711181638 1.0000000180025095e-35
decision_type=2 2 2 2 2 2 2 2 2 2 2 2 2 2 2 2 2 2 2 2 2 2 2 2 2 2 2 2 2 2
left_child=3 5 4 11 13 9 8 18 12 -2 17 23 -6 16 22 20 -3 -11 28 -14 -5 -22 -13 24 -1 -9 27 -24 -4 -25
right_child=1 2 7 15 6 -7 -8 25 -10 10 -12 14 19 -15 -16 -17 -18 -19 -20 -21 21 -23 26 29 -26 -27 -28 -29 -30 -31
leaf_value=-0.10165510296821595 -0.045347705483436584 -0.0035789815492408223 0.082752920710851274 -0.071050946956331087 0.048411921323449528 0.051350947717825571 0.090759737658918954 0.10996046446371771 0.089501107235749569 -0.037266822797911513 0.057504254616796972 -0.076970894242587851 0.056779988937907748 0.060385449833058297 -0.030831158522403604 -0.0015799022806079492 0.041825706683672394 0.0012204613945089348 0.10885825232853966 0.084882619944951873 -0.06712749247197751 -0.037031736517591139 -0.076292559154872791 -0.080928815430716464 -0.084687034135619649 0.11979678539519614 -0.062130872341559118 -0.062126566951091478 0.091752655903498348 -0.074960578565137936
leaf_weight=40 49 43 126 44 270 48 228 138 96 35 20 190 72 47 33 23 39 112 126 93 27 112 179 608 259 282 152 130 120 166
leaf_count=40 49 29 21 44 94 16 38 23 17 35 8 190 22 14 33 23 13 112 21 18 27 112 179 608 259 47 152 130 20 166
internal_value=-0.00015344 0.0735545 0.084979 -0.073148 0.066052 0.000853204 0.0715926 0.1062 0.0633627 -0.0103685 -0.000105162 -0.0765321 0.0575942 0.0334529 -0.0684483 -0.0442844 0.0180159 -0.00794318 0.0944982 0.0726197 -0.0496516 -0.0428777 -0.0703551 -0.0816853 -0.086957 0.116565 -0.0676284 -0.0703328 0.087143 -0.0796488
internal_weight=3907 1944 1680 1963 888 264 759 792 531 216 167 1757 435 129 684 206 82 147 372 165 183 139 651 1073 299 420 461 309 246 774
internal_count=2560 597 377 1963 245 220 189 132 151 204 155 1757 134 56 684 206 42 147 62 40 183 139 651 1073 299 70 461 309 41 774
is_linear=0
shrinkage=0.05


Tree=16
num_leaves=31
num_cat=0
split_feature=34 37 33 16 20 41 37 17 27 37 16 36 4 16 36 31 21 19 18 25 33 36 22 16 27 16 34 20 29 21
split_gain=7564.73 433.349 224.002 152.474 91.2751 81.2438 46.6288 35.8568 35.2725 35.0284 20.1204 19.7896 25.2039 22.6377 11.794 13.9496 9.27433 8.49009 6.39766 6.39403 4.97268 4.84906 4.54731 4.456 4.32623 3.55273 3.5366 3.40307 2.81048 2.2861
threshold=2.5000000000000004 1.0000000180025095e-35 2.5000000000000004 3.9507358138229587 7.0600000000000014 10.552600173950195 3.5000000000000004 1.0781794971655991 13.545001029968263 3.5000000000000004 4.9446429905419711 3.5000000000000004 1.0000000180025095e-35 1.2351863494449169 1.0000000180025095e-35 1.0000000180025095e-35 0.73500000000000043 0.63713819000000005 0.29499999999999987 0.24314062256542276 1.0000000180025095e-35 2.5000000000000004 0.16538319163988913 1.0000000180025095e-35 2.0549993515014671 1.2351863494449169 1.5000000000000002 6.9350000000000014 0.12433021243001148 -0.46999999999999964
decision_type=2 2 2 2 2 2 2 2 2 2 2 2 2 2 2 2 2 2 2 2 2 2 2 2 2 2 2 2 2 2
left_child=1 14 3 4 8 6 17 16 19 -4 24 -6 23 -14 15 20 -7 26 22 -2 -1 29 -17 -13 -5 -11 -3 -18 -8 -16
right_child=2 5 9 10 11 7 28 -9 -10 25 -12 12 13 -15 21 18 27 -19 -20 -21 -22 -23 -24 -25 -26 -27 -28 -29 -30 -31
leaf_value=-0.088200195469297804 -0.049027450123558879 -0.069108325461061992 0.080544346111516174 0.071593537167006852 0.032640512655307721 0.011545061913451978 0.0086336166636707887 0.041144831211709268 0.042557349184957835 0.10446244149968245 0.10341533479236423 0.056507244490195008 0.088908427732962148 0.056754470945478565 -0.070053941049153287 -0.073044992791363061 -0.034041215010263304 -0.03756815526796424 -0.047131856399423938 -0.01132336851548065 -0.076906966552138342 -0.044145727370466507 -0.063090112098192763 0.043996977841570264 0.083560235762514201 0.11418722421944548 -0.045803634656800166 -0.0072041983743907807 -0.012321981050384541 -0.061359796667921129
leaf_weight=111 23 41 120 102 77 35 48 67 26 138 126 138 108 111 158 326 27 115 34 22 800 28 177 147 291 294 27 21 24 145
leaf_count=111 23 41 24 21 31 33 44 29 13 23 21 37 18 33 158 326 27 115 34 22 800 28 177 55 50 49 27 21 24 145
internal_value=-0.000145769 -0.0619419 0.0781843 0.0658065 0.0497093 -0.0152627 -0.0324384 0.0139359 -0.0038064 0.104442 0.0860287 0.0562491 0.059856 0.0726112 -0.0725687 -0.0745151 -0.008028 -0.0458496 -0.0681231 -0.0305943 -0.078283 -0.0640537 -0.069542 0.0500546 0.0804544 0.111081 -0.059855 -0.0223 0.00164842 -0.0658934
internal_weight=3907 2184 1723 1171 652 405 255 150 71 552 519 581 504 219 1779 1448 83 183 537 45 911 331 503 285 393 432 68 48 72 303
internal_count=2560 2140 420 324 232 361 251 110 58 96 92 174 143 51 1779 1448 81 183 537 45 911 331 503 92 71 72 68 48 68 303
is_linear=0
shrinkage=0.05


Tree=17
num_leaves=31
num_cat=0
split_feature=35 34 35 20 34 35 39 38 4 19 32 35 25 24 16 23 16 38 18 19 38 4 34 35 32 34 25 3 7 34
split_gain=6856.98 524.36 222.021 59.8798 54.8715 49.6836 37.1873 30.4237 27.5973 25.5561 20.0417 19.978 16.567 15.1339 13.8916 19.4207 12.2793 11.172 8.94528 6.66237 5.83189 4.96712 5.4975 4.56972 3.67905 3.51614 2.97703 2.90828 2.86545 2.07552
threshold=1.5000000000000002 2.5000000000000004 2.5000000000000004 6.2400000000000011 3.5000000000000004 2.5000000000000004 5.6019272595720153 5.0000000000000009 1.0000000180025095e-35 1.0158826150000002 1.0000000180025095e-35 1.0000000180025095e-35 0.26332926229524384 -0.32847012785173052 1.6472181291283807 0.030167781572736255 4.9446429905419711 1.5000000000000002 -0.034999999999999941 0.11781601000000001 1.0000000180025095e-35 1.0000000180025095e-35 1.0000000180025095e-35 1.0000000180025095e-35 1.0000000180025095e-35 1.0000000180025095e-35 0.14918850672964704 1.0000000180025095e-35 1.0000000180025095e-35 1.0000000180025095e-35
decision_type=2 2 2 2 2 2 2 2 2 2 2 2 2 2 2 2 2 2 2 2 2 2 2 2 2 2 2 2 2 2
left_child=3 5 4 11 8 10 -6 16 -3 19 -2 24 17 -11 15 -12 -4 23 -16 -8 25 -22 -23 -5 28 -13 -19 -9 -1 -26
right_child=1 2 7 12 6 -7 9 27 -10 13 14 20 -14 -15 18 -17 -18 26 -20 -21 21 22 -24 -25 29 -27 -28 -29 -30 -31
leaf_value=-0.089487028618653625 -0.040774558957030138 -0.001661546139613442 0.079050150828632884 -0.069127637147903445 0.081565471647078544 0.046929354717334115 0.061987684075794525 0.099239318267158844 0.046619916859879554 0.053050175343436756 -0.0010675362699354687 -0.069379757081761084 -0.0080851158448334414 0.079263050317764289 -0.0019454884846679501 0.056610007584095005 0.098244573199559773 -0.017103281319141388 -0.0323706416040659 0.043644199781603631 -0.06817135700812707 -0.055829561709257583 -0.031682337075471877 -0.05032857189052984 -0.072742666910865353 -0.059192322376297749 -0.039085367588854551 0.10809758284413223 -0.076190614493993614 -0.064654345744185979
leaf_weight=48 41 46 246 49 228 48 63 138 83 87 54 272 29 150 61 20 126 20 40 231 65 149 28 95 668 123 67 282 260 90
leaf_count=48 41 30 41 49 39 16 17 23 26 26 54 272 29 26 61 8 21 20 40 81 65 149 28 95 668 123 67 47 260 90
internal_value=-0.00013848 0.0664236 0.0767176 -0.0660563 0.0595516 0.000916306 0.0646756 0.0959643 0.0294033 0.0574235 -0.00930882 -0.0694684 -0.0437066 0.0696406 -0.00193684 0.014521 0.0855515 -0.0481786 -0.0139951 0.0475749 -0.0624628 -0.0563506 -0.0520097 -0.0567255 -0.0736547 -0.0662075 -0.034032 0.105187 -0.0782628 -0.0717823
internal_weight=3907 1944 1680 1963 888 264 759 792 129 531 216 1703 260 237 175 74 372 231 101 294 637 242 177 144 1066 395 87 420 308 758
internal_count=2560 597 377 1963 245 220 189 132 56 150 204 1703 260 52 163 62 62 231 101 98 637 242 177 144 1066 395 87 70 308 758
is_linear=0
shrinkage=0.05


Tree=18
num_leaves=31
num_cat=0
split_feature=35 35 20 36 37 33 26 19 33 35 37 37 16 17 36 26 27 4 41 4 23 35 39 19 4 17 29 3 19 18
split_gain=6188.42 381.764 233.9 72.9044 56.8509 43.8468 33.9862 32.7449 36.7485 22.2376 21.7336 19.5277 19.0165 16.8772 14.8423 13.835 10.2974 7.94103 14.5785 7.17185 6.85962 5.8111 5.38727 2.93177 2.86656 2.82959 2.64702 2.62472 2.59216 1.9607
threshold=1.5000000000000002 2.5000000000000004 6.9350000000000014 3.5000000000000004 1.0000000180025095e-35 2.5000000000000004 27.970000267028812 1.0158826150000002 2.5000000000000004 1.0000000180025095e-35 1.0000000180025095e-35 5.0000000000000009 4.9446429905419711 -0.056079146911769344 2.5000000000000004 26.365000724792484 1.4549999237060567 1.0000000180025095e-35 49.084801025390625 1.0000000180025095e-35 -0.031987204138960328 1.0000000180025095e-35 5.9299180766154711 1.2610722200000002 1.0000000180025095e-35 0.12398233499550927 -0.0050802179070555077 1.0000000180025095e-35 -0.036181464999999996 0.0099999999999998024
decision_type=2 2 2 2 2 2 2 2 2 2 2 2 2 2 2 2 2 2 2 2 2 2 2 2 2 2 2 2 2 2
left_child=4 2 6 11 9 12 10 8 20 24 29 23 16 -12 19 25 -3 18 -9 -6 -5 -21 -22 -4 -1 28 -15 -7 -11 -2
right_child=1 5 3 7 14 27 -8 17 -10 15 13 -13 -14 26 -16 -17 -18 -19 -20 21 22 -23 -24 -25 -26 -27 -28 -29 -30 -31
leaf_value=-0.073457541608927299 -0.051680864083270231 0.056027495066324873 -0.012572189843138824 0.063696285730768604 -0.058804830670356759 0.094277353217636334 0.049659076062115753 0.045362392650582853 0.081842925583106893 -0.050549110507263864 -0.02833647784826003 0.038541000649548962 0.093332339846898649 0.025476561180715052 -4.6052103457243544e-05 -0.022848469176544595 0.076331000526746129 0.076431264956988917 0.072406104898107226 -0.057300467402846722 0.022853944327851591 -0.031317424225919648 0.041963262307016476 0.0089948226604610691 -0.068133887688916428 -0.056987487467760403 0.0044256714405491952 0.10269270230692329 -0.065195356479870001 -0.033125842852251869
leaf_weight=408 24 90 26 31 50 138 22 78 69 34 38 69 126 28 23 26 204 202 138 27 44 106 228 40 665 353 32 282 271 35
leaf_count=408 24 21 26 8 50 23 9 25 14 34 38 23 21 20 23 26 36 35 24 27 26 106 76 34 665 353 32 47 271 35
internal_value=-0.000131556 0.0631024 0.043775 0.053899 -0.0627535 0.0885042 -0.00854227 0.0597017 0.0489111 -0.065667 -0.0166979 0.0199426 0.0770807 -0.00226348 -0.0379032 -0.0586217 0.0701156 0.0693048 0.0626403 -0.0426612 0.0414118 -0.0365922 0.038872 0.000498727 -0.0701582 -0.0600352 0.0142494 0.0999277 -0.0635627 -0.0406736
internal_weight=3907 1944 1104 925 1963 840 179 790 372 1757 157 135 420 98 206 684 294 418 216 183 303 133 272 66 1073 658 60 420 305 59
internal_count=2560 597 449 291 1963 148 158 208 124 1757 149 83 78 90 206 684 57 84 49 183 110 133 102 60 1073 658 52 70 305 59
is_linear=0
shrinkage=0.05


Tree=19
num_leaves=31
num_cat=0
split_feature=35 35 26 9 37 32 36 19 37 36 35 16 37 36 36 27 13 32 16 35 36 8 17 32 32 18 3 7 38 36
split_gain=5585.05 344.542 197.162 93.4543 51.3079 40.4398 39.5717 36.0845 30.1902 21.405 20.0695 17.1624 15.5081 13.3951 12.6016 9.41362 8.92481 7.84982 6.253 5.21955 5.04808 4.0232 3.57518 3.39926 3.34581 2.87961 2.36881 2.36171 1.96365 4.18481
threshold=1.5000000000000002 2.5000000000000004 25.000000000000004 1.0000000180025095e-35 1.0000000180025095e-35 1.0000000180025095e-35 8.5000000000000018 0.53855919000000008 1.0000000180025095e-35 5.0000000000000009 1.0000000180025095e-35 4.9446429905419711 5.0000000000000009 2.5000000000000004 2.5000000000000004 2.9900002479553227 -0.19999999999999965 1.0000000180025095e-35 1.0000000180025095e-35 1.0000000180025095e-35 7.0000000000000009 1.0000000180025095e-35 -0.36981344582523984 1.0000000180025095e-35 1.0000000180025095e-35 0.0099999999999999516 1.0000000180025095e-35 1.0000000180025095e-35 1.0000000180025095e-35 1.0000000180025095e-35
decision_type=2 2 2 2 2 2 2 2 2 2 2 2 2 2 2 2 2 2 2 2 2 2 2 2 2 2 2 2 2 2
left_child=4 2 8 12 10 18 11 21 -2 16 23 15 22 17 24 -3 -10 -6 -5 -19 25 -7 -4 27 -12 -9 -8 -1 29 -26
right_child=1 6 3 5 13 7 26 20 9 -11 14 -13 -14 -15 -16 -17 -18 19 -20 -21 -22 -23 -24 -25 28 -27 -28 -29 -30 -31
leaf_value=-0.081339800854523983 -0.039997957948040452 0.054868474823457226 -4.6323921258856612e-05 0.04238988217853365 -0.058933972905982623 0.03869426755174514 0.089563484122787695 0.069769102655431278 -0.027165356487967075 0.039546261065536076 -0.062802087350895527 0.088665724935985749 0.034222866694132485 -4.3749420539192537e-05 -0.025547464462843811 0.073427436236412291 0.0046388065768733734 -0.054435443878173832 0.021994019836625633 -0.029944635315665175 0.073963339770281758 0.053022064618122436 -0.024036240249872207 -0.064901107095316712 -0.062164915906650402 0.057604079036151661 0.097558067030940498 -0.069234900146841527 -0.050264666927978402 -0.050378300914397614
leaf_weight=48 47 108 41 84 44 124 138 93 32 36 190 126 30 23 33 186 71 27 68 112 270 81 25 774 179 102 282 251 152 130
leaf_count=48 47 25 39 28 44 42 23 17 32 12 190 21 10 23 33 32 67 27 36 112 45 23 25 774 179 26 47 251 152 130
internal_value=-0.000124978 0.0599473 0.0415862 0.0510973 -0.0596158 0.0565492 0.0840789 0.0618315 -0.00535578 0.00635776 -0.0623837 0.0732266 0.00441542 -0.036008 -0.0556906 0.0666099 -0.0052421 -0.0405281 0.0332654 -0.0347018 0.069536 0.0443555 -0.00913341 -0.0666503 -0.0572186 0.0634059 0.0949313 -0.0711782 -0.0549174 -0.0572061
internal_weight=3907 1944 1104 918 1963 822 840 670 186 139 1757 420 96 206 684 294 103 183 152 139 465 205 66 1073 651 195 420 299 461 309
internal_count=2560 597 449 291 1963 217 148 153 158 111 1757 78 74 206 684 57 99 183 64 139 88 65 64 1073 651 43 70 299 461 309
is_linear=0
shrinkage=0.05


Tree=20
num_leaves=31
num_cat=0
split_feature=35 34 35 34 36 35 33 19 36 33 37 20 24 18 37 38 19 13 18 38 4 39 35 4 35 35 4 18 22 33
split_gain=5040.38 378.388 174.157 42.0539 38.4465 36.4215 30.7745 29.6064 18.9825 16.1103 13.5471 11.938 11.5106 10.7183 10.5549 10.0353 6.95523 6.65088 6.3794 3.60684 3.07809 2.67744 2.6329 2.60393 2.47221 1.85791 1.84729 1.37491 1.32526 1.84145
threshold=1.5000000000000002 2.5000000000000004 2.5000000000000004 3.5000000000000004 1.0000000180025095e-35 2.5000000000000004 2.5000000000000004 1.0158826150000002 2.5000000000000004 2.5000000000000004 1.0000000180025095e-35 7.660000000000001 -0.30572607982722017 -0.28999999999999976 1.5000000000000002 1.0000000180025095e-35 0.66118479500000016 -0.19999999999999965 -1.0000000180025095e-35 1.5000000000000002 1.0000000180025095e-35 10.173869718116121 1.0000000180025095e-35 1.0000000180025095e-35 1.0000000180025095e-35 1.0000000180025095e-35 1.0000000180025095e-35 -0.054999999999999993 -1.0000000180025095e-35 1.0000000180025095e-35
decision_type=2 2 2 2 2 2 2 2 2 2 2 2 2 2 2 2 2 2 2 2 2 2 2 2 2 2 2 2 2 2
left_child=4 5 3 11 15 6 10 18 14 13 -2 -3 -9 -4 19 24 -10 -12 -5 25 -16 -20 -17 -11 28 -6 -24 -19 29 -1
right_child=1 2 9 7 8 -7 -8 12 16 23 17 -13 -14 -15 20 22 -18 27 21 -21 -22 -23 26 -25 -26 -27 -28 -29 -30 -31
leaf_value=-0.073704464422477467 -0.037395306935776834 0.0035378472879529 0.067025616831249663 0.035626867030643758 -0.057682752889745385 0.038593717857643414 0.050012046524456566 0.048210653694727094 -0.031949795120292244 0.087030224350915453 -0.026742971856747906 0.036206218778197449 0.068146220296165627 0.084753308472809971 -0.047529047008218445 -0.058724484361451251 0.0037344930185513065 -0.0088325022267443792 0.055627414872569426 -0.036152066915265978 -0.028030170277873086 0.042628064190132035 -0.057872799818332377 0.095112056915576643 -0.059696062435122099 -0.050353833135556095 -0.047811289793915218 0.0030954414441321907 -0.063450893828081431 -0.065317136356247349
leaf_weight=91 46 48 180 144 170 54 21 93 36 276 31 67 327 162 29 203 22 35 93 31 67 69 65 156 272 176 153 78 436 233
leaf_count=91 46 30 30 52 170 18 9 27 36 46 31 21 55 27 29 203 22 35 25 31 67 22 65 26 272 176 153 78 436 233
internal_value=-0.00133577 0.0573287 0.0664151 0.0506635 -0.0569251 0.00195247 -0.00742491 0.0551134 -0.0454114 0.0835303 -0.0137732 0.0225707 0.0637319 0.0754229 -0.0487218 -0.0611327 -0.0184144 -0.00622726 0.0432842 -0.0524909 -0.0339205 0.0500907 -0.0546269 0.0899487 -0.0637867 -0.0539547 -0.0508113 -0.000599054 -0.0652508 -0.0676728
internal_weight=3864 1880 1615 841 1984 265 211 726 531 774 190 115 420 342 473 1453 58 144 306 377 96 162 421 432 1032 346 218 113 760 324
internal_count=2562 578 361 232 1984 217 199 181 531 129 190 51 82 57 473 1453 58 144 99 377 96 47 421 72 1032 346 218 113 760 324
is_linear=0
shrinkage=0.05


Tree=21
num_leaves=31
num_cat=0
split_feature=35 35 11 9 36 36 19 37 25 36 38 38 33 37 26 36 17 16 37 27 25 25 35 4 35 35 17 22 4 25
split_gain=4548.94 289.275 161.631 69.8528 34.6979 33.6679 25.5502 23.8567 19.5342 18.6783 11.4095 9.05688 8.8358 8.7166 7.86955 6.59196 14.6357 4.48369 3.76243 3.34959 3.17821 2.68104 2.3762 2.35005 2.23117 2.00925 1.8773 1.83815 1.66718 1.63777
threshold=1.5000000000000002 2.5000000000000004 1.0000000180025095e-35 1.0000000180025095e-35 1.0000000180025095e-35 5.0000000000000009 1.0158826150000002 1.0000000180025095e-35 0.25437470650177496 5.0000000000000009 1.5000000000000002 1.0000000180025095e-35 2.5000000000000004 5.0000000000000009 41.060001373291023 7.0000000000000009 -0.061244799338233492 0.3388110077265028 1.5000000000000002 1.7549991607666018 0.18820986584891056 0.14557641564615673 1.0000000180025095e-35 1.0000000180025095e-35 1.0000000180025095e-35 1.0000000180025095e-35 0.19134242831388978 -0.88689287275313411 1.0000000180025095e-35 0.34267368994060082
decision_type=2 2 2 2 2 2 2 2 2 2 2 2 2 2 2 2 2 2 2 2 2 2 2 2 2 2 2 2 2 2
left_child=4 2 7 13 11 -3 15 21 10 17 18 24 19 20 27 29 -17 -9 25 -7 -4 -2 -13 -14 -1 -6 -12 -8 -24 -5
right_child=1 5 3 6 8 12 14 9 -10 -11 26 22 23 -15 -16 16 -18 -19 -20 -21 -22 -23 28 -25 -26 -27 -28 -29 -30 -31
leaf_value=-0.06198823733549369 -0.026289126214881737 0.054024825709453529 -0.021010470204055311 0.026578033152891669 -0.054798615136567287 0.067647667527198793 0.065696218370021084 -0.025804234296083452 -0.0046262533283762388 0.036543020876971165 -0.038990598534926396 -0.055788260815766058 0.082678715906281397 0.027832574823072984 0.045689408689416872 0.032373651406831211 0.063933773040771483 -0.00080569021233265674 -0.033885594333211581 0.079069760916889581 0.0024488468787499836 -0.050453939424319708 -0.05497915653082041 0.090356453565450814 -0.056711259571944964 -0.047352790748028416 -0.024945035601248507 0.058417951492215861 -0.045420724796313872 0.037106840173403426
leaf_weight=760 24 138 22 49 170 120 174 24 31 33 39 203 276 28 93 72 75 71 36 138 42 22 65 156 272 194 61 173 153 150
leaf_count=760 24 32 22 21 170 20 29 24 31 11 39 203 46 10 27 28 16 71 36 23 40 22 65 26 272 194 61 36 153 50
internal_value=-0.00126899 0.0544622 0.037062 0.0457868 -0.0540788 0.0765697 0.0506118 -0.00696271 -0.0431408 0.00413605 -0.0455287 -0.0580761 0.0810787 0.00456449 0.0586058 0.0404459 0.0484758 -0.00712111 -0.0493052 0.0737572 -0.00561529 -0.0378462 -0.0518956 0.0854512 -0.0605974 -0.0508302 -0.0304228 0.0620676 -0.0482707 0.0345143
internal_weight=3864 1880 1052 878 1984 828 786 174 531 128 500 1453 690 92 440 346 147 95 400 258 64 46 421 432 1032 364 100 347 218 199
internal_count=2562 578 431 279 1984 147 207 152 531 106 500 1453 115 72 92 115 44 95 400 43 62 46 421 72 1032 364 100 65 218 71
is_linear=0
shrinkage=0.05


Tree=22
num_leaves=31
num_cat=0
split_feature=35 34 35 34 20 35 33 19 25 33 35 37 20 24 18 37 32 18 25 32 38 32 34 32 33 4 20 38 34 41
split_gain=4105.42 309.818 142.57 35.5819 31.2455 28.358 25.7813 24.3247 13.6564 12.849 11.1974 11.1217 10.0523 9.55306 9.21644 7.8163 7.04386 5.25504 7.10769 3.2782 3.17054 2.9249 2.85692 2.56255 2.73574 2.12092 1.9775 1.60871 1.56716 1.39208
threshold=1.5000000000000002 2.5000000000000004 2.5000000000000004 3.5000000000000004 6.2400000000000011 2.5000000000000004 2.5000000000000004 1.0158826150000002 0.25437470650177496 2.5000000000000004 1.0000000180025095e-35 1.0000000180025095e-35 7.660000000000001 -0.30572607982722017 -0.28999999999999976 1.0000000180025095e-35 1.0000000180025095e-35 -1.0000000180025095e-35 0.31676933681260183 1.0000000180025095e-35 1.0000000180025095e-35 1.0000000180025095e-35 1.0000000180025095e-35 1.0000000180025095e-35 1.0000000180025095e-35 1.0000000180025095e-35 5.5950000000000015 1.0000000180025095e-35 1.0000000180025095e-35 31.916800498962406
decision_type=2 2 2 2 2 2 2 2 2 2 2 2 2 2 2 2 2 2 2 2 2 2 2 2 2 2 2 2 2 2
left_child=4 5 3 12 10 6 11 17 15 14 23 -2 -3 -9 -4 -6 -13 -5 -19 -12 22 -17 -21 24 -1 -11 -22 28 -25 -18
right_child=1 2 9 7 8 -7 -8 13 -10 25 19 16 -14 -15 -16 21 29 18 -20 20 26 -23 -24 27 -26 -27 -28 -29 -30 -31
leaf_value=-0.073131093829870222 -0.033857257210690044 0.002403458704551061 0.060419450600941976 0.03213044630570544 -0.048618263314085558 0.033962791275095057 0.045927822731790094 0.043474594816084837 -0.0043949404310795566 0.078544778754745706 -0.053836610392459384 -0.026729895799390731 0.032380863979681214 0.061636048610057309 0.076858284149640882 -0.044758783706596923 0.0028267463135188851 0.056967212922043278 0.035890430344475636 -0.053344357733068795 -0.043079267224917811 -0.026302550765483275 -0.042411166953516537 -0.057719509815441744 -0.059063042383494337 0.085838628426576274 -0.027845054477453231 -0.051098300262195306 -0.050577439069747925 -0.011440416180440003
leaf_weight=40 46 48 180 144 121 54 21 93 31 276 206 31 67 327 162 28 92 72 90 174 144 92 91 524 254 156 25 164 90 21
leaf_count=40 46 30 30 52 121 18 9 27 31 46 206 31 21 55 27 28 92 17 30 174 144 92 91 524 254 26 25 164 90 21
internal_value=-0.00120554 0.0517391 0.0599612 0.0457094 -0.0513749 0.00163104 -0.00664343 0.0498026 -0.0356328 0.0754467 -0.0538759 -0.0124539 0.0198686 0.0576146 0.0682063 -0.039651 -0.00561677 0.0390803 0.0452579 -0.0486425 -0.0461771 -0.030609 -0.0495899 -0.0570003 -0.0609771 0.0811787 -0.0408257 -0.0554976 -0.0566726 0.000175327
internal_weight=3864 1880 1615 841 1984 265 211 726 272 774 1712 190 115 420 342 241 144 306 162 640 434 120 265 1072 294 432 169 778 614 113
internal_count=2562 578 361 232 1984 217 199 181 272 129 1712 190 51 82 57 241 144 99 47 640 434 120 265 1072 294 72 169 778 614 113
is_linear=0
shrinkage=0.05


Tree=23
num_leaves=31
num_cat=0
split_feature=35 34 35 34 36 35 33 19 25 33 2 37 20 24 16 32 35 20 29 31 35 4 32 33 3 32 25 4 31 24
split_gain=3705.14 279.611 128.669 32.1127 28.4999 25.5931 23.2676 21.953 15.8728 11.5962 10.0884 10.0373 9.07222 8.62164 7.77833 6.35708 6.32139 3.8027 4.26099 2.8382 2.76481 2.66746 2.1663 2.17874 1.97199 1.51508 1.31555 1.20134 1.19408 1.15238
threshold=1.5000000000000002 2.5000000000000004 2.5000000000000004 3.5000000000000004 1.0000000180025095e-35 2.5000000000000004 2.5000000000000004 1.0158826150000002 0.25437470650177496 2.5000000000000004 1.0000000180025095e-35 1.0000000180025095e-35 7.660000000000001 -0.30572607982722017 4.9446429905419711 1.0000000180025095e-35 1.0000000180025095e-35 7.7800000000000002 -0.077321808492198482 1.0000000180025095e-35 1.0000000180025095e-35 1.0000000180025095e-35 1.0000000180025095e-35 1.0000000180025095e-35 1.0000000180025095e-35 1.0000000180025095e-35 0.13689118115637475 1.0000000180025095e-35 1.0000000180025095e-35 -0.013785823841050147
decision_type=2 2 2 2 2 2 2 2 2 2 2 2 2 2 2 2 2 2 2 2 2 2 2 2 2 2 2 2 2 2
left_child=4 5 3 12 16 6 11 17 10 14 20 26 -3 -9 -4 -13 22 18 -5 -18 -6 -12 23 -1 -11 29 -2 -21 -24 -22
right_child=1 2 9 7 8 -7 -8 13 -10 24 21 15 -14 -15 -16 -17 19 -19 -20 27 25 -23 28 -25 -26 -27 -28 -29 -30 -31
leaf_value=-0.069474539607763286 -0.023332802409475502 0.0022832860704511404 0.058131028587619461 0.052034712701603994 -0.050057797662065001 0.032264651634075027 0.043631432453791308 0.041300862386662474 -0.0041751935597388974 0.073006195309518393 -0.044423654462609978 -0.025393400557579535 0.030761820344782587 0.058554247322432501 0.073327052911122639 0.00016656040040924488 -0.05139923107209813 0.031973696802601669 0.034646931580371326 -0.049538368811974161 -0.041916375053234589 -0.024769042923892898 -0.054988012837929173 -0.056747170590676403 0.079893985275150278 -0.038676818349669059 -0.040260019712150097 -0.041519790425537578 -0.050776735854236199 -0.054951027035713196
leaf_weight=40 22 48 192 69 158 54 21 93 31 174 21 31 67 327 150 113 259 165 72 65 39 97 439 211 258 155 24 166 273 30
leaf_count=40 22 30 32 17 158 18 9 27 31 29 21 31 21 55 25 113 259 55 27 65 39 97 439 211 43 155 24 166 273 30
internal_value=-0.00114526 0.0491522 0.0569631 0.0434239 -0.0488061 0.00154949 -0.00631126 0.0473125 -0.0388931 0.0716743 -0.0410456 -0.0118312 0.0188751 0.0547339 0.064796 -0.00533593 -0.0524288 0.0371263 0.0431558 -0.0478055 -0.044993 -0.0282669 -0.0547813 -0.0587754 0.0771197 -0.0414204 -0.0321644 -0.0437761 -0.0533733 -0.0475836
internal_weight=3864 1880 1615 841 1984 265 211 726 531 774 500 190 115 420 342 144 1453 306 141 490 382 118 963 251 432 224 46 231 712 69
internal_count=2562 578 361 232 1984 217 199 181 531 129 500 190 51 82 57 144 1453 99 44 490 382 118 963 251 72 224 46 231 712 69
is_linear=0
shrinkage=0.05


Tree=24
num_leaves=31
num_cat=0
split_feature=35 34 35 34 35 35 36 19 20 36 37 17 24 25 16 13 37 20 38 4 4 34 4 20 2 36 38 25 40 28
split_gain=3343.89 252.349 116.124 28.9817 25.7326 23.0978 20.999 19.8126 17.7257 10.4656 9.05869 8.41607 7.78103 7.48193 7.01994 4.66597 3.92456 3.44133 2.63043 1.90939 1.79606 1.78948 1.77717 1.7231 1.39813 1.18857 1.19128 1.18728 1.13817 0.940545
threshold=1.5000000000000002 2.5000000000000004 2.5000000000000004 3.5000000000000004 1.0000000180025095e-35 2.5000000000000004 5.0000000000000009 1.0158826150000002 6.3250000000000002 8.5000000000000018 1.0000000180025095e-35 -0.13645379662566906 -0.30572607982722017 0.25437470650177496 4.9446429905419711 -0.19999999999999965 1.0000000180025095e-35 7.2650000000000015 1.0000000180025095e-35 1.0000000180025095e-35 1.0000000180025095e-35 1.0000000180025095e-35 1.0000000180025095e-35 5.5950000000000015 1.0000000180025095e-35 1.0000000180025095e-35 1.0000000180025095e-35 0.13689118115637475 1.9563842824047297 -0.19921731962564426
decision_type=2 2 2 2 2 2 2 2 2 2 2 2 2 2 2 2 2 2 2 2 2 2 2 2 2 2 2 2 2 2
left_child=4 5 3 11 19 6 10 17 18 14 27 -3 -9 16 -4 -12 -10 -5 21 -1 -11 -6 -20 -24 -19 26 -21 -2 -18 -23
right_child=1 2 9 7 8 -7 -8 12 13 20 15 -13 -14 -15 -16 -17 28 24 22 25 -22 29 23 -25 -26 -27 -28 -29 -30 -31
leaf_value=-0.053960115661576005 -0.022166162322867999 0.0070862841606140134 0.055224480355779329 0.0443354586378122 -0.048578398190023291 0.03065141925105342 0.041449859596434095 0.039235819347443121 -0.039699493646621703 0.070839954804683081 -0.022252891813555071 0.034801508519384593 0.055626532681491397 -0.0039664338913656047 0.069660701592763261 -0.00035500663200772442 -0.021058264291948743 0.028738545170126036 -0.045455325610107844 -0.051863643249492691 0.077552000070229554 -0.048440631713185994 -0.038860945827845078 -0.024640366971492769 0.036638024178418244 -0.044778272882103926 -0.046782533507193289 -0.038247018307447436 -0.034541236460208895 -0.038852463521455466
leaf_weight=423 22 70 192 78 269 54 21 93 70 276 31 45 327 31 150 113 72 129 90 451 156 35 144 25 99 104 155 24 20 95
leaf_count=423 22 36 32 25 269 18 9 27 70 46 31 15 55 31 25 113 72 43 90 451 26 35 144 25 31 104 155 24 20 95
internal_value=-0.001088 0.0466945 0.054115 0.0412527 -0.0463658 0.00147202 -0.0059957 0.0449468 -0.0397954 0.0680906 -0.0112397 0.0179314 0.0519972 -0.0264712 0.0615562 -0.00506913 -0.0307777 0.0352699 -0.0437036 -0.0513009 0.0732637 -0.0462506 -0.0397798 -0.0367573 0.0321686 -0.0497165 -0.050564 -0.0305562 -0.0239893 -0.0414339
internal_weight=3864 1880 1615 841 1984 265 211 726 851 774 190 115 420 193 342 144 162 306 658 1133 432 399 259 169 228 710 606 46 92 130
internal_count=2562 578 361 232 1984 217 199 181 851 129 190 51 82 193 57 144 162 99 658 1133 72 399 259 169 74 710 606 46 92 130
is_linear=0
shrinkage=0.05


Tree=25
num_leaves=31
num_cat=0
split_feature=34 37 38 32 37 32 38 36 36 32 13 34 19 38 36 14 36 13 16 27 36 32 36 27 23 29 2 33 13 29
split_gain=3239.29 145.372 130.006 54.7728 55.6995 29.5591 25.0398 26.8276 14.407 10.7715 10.1291 8.24188 22.7689 6.08111 7.4598 5.30566 4.99111 5.61891 4.93237 4.71695 3.6235 3.5264 3.34001 3.31251 3.29336 2.15233 1.9953 1.87747 2.07669 1.53539
threshold=2.5000000000000004 1.0000000180025095e-35 2.5000000000000004 1.0000000180025095e-35 7.0000000000000009 1.5000000000000002 1.0000000180025095e-35 10.500000000000002 1.5000000000000002 1.0000000180025095e-35 1.1500000000000001 3.5000000000000004 1.4000034850000003 1.5000000000000002 1.0000000180025095e-35 2.3750000000000004 2.5000000000000004 0.14999999999999994 3.7838088617633829 -7.5400004386901847 3.5000000000000004 1.0000000180025095e-35 2.5000000000000004 2.0549993515014671 0.078241156247127588 0.0028560590669290697 1.0000000180025095e-35 1.0000000180025095e-35 -0.10000000000000094 -0.0011083117356170738
decision_type=2 2 2 2 2 2 2 2 2 2 2 2 2 2 2 2 2 2 2 2 2 2 2 2 2 2 2 2 2 2
left_child=1 13 3 4 -2 8 7 18 15 29 23 12 -8 14 27 -3 17 -11 19 -5 -7 -16 -23 -4 -25 -15 -13 28 -1 -10
right_child=2 5 10 6 -6 20 11 -9 9 16 -12 26 -14 25 21 -17 -18 -19 -20 -21 -22 22 -24 24 -26 -27 -28 -29 -30 -31
leaf_value=-0.063376115340935554 -0.037185948233051998 -0.043726599324833269 0.065098763190633888 -0.0016161339730024337 0.0293556171434897 0.0058015036163851621 0.02334526056830568 0.056969710985819502 -0.021281463652849199 -0.02181478825211525 0.053931846315898591 0.052590321625272433 0.055617619939401855 -0.022283807471394541 -0.049830749513287295 -0.022050384380694094 0.0098963110831546339 0.0014463332533422445 0.038465674055947197 0.024023507522611783 0.02892546769645479 -0.039371915750445859 -0.019837670338650547 0.077890966851034291 0.068139599471963866 -0.039490783970859186 0.060472412213035259 -0.047682305806812729 -0.050548908130456038 -0.03881916621556649
leaf_weight=38 41 55 246 20 135 32 87 90 24 50 126 192 147 20 76 58 47 54 54 174 36 248 24 162 186 199 138 1049 186 26
leaf_count=38 41 55 41 12 45 30 35 15 24 50 21 32 25 20 76 58 39 54 15 68 12 248 24 27 31 199 23 1049 186 26
internal_value=0.00046182 -0.0399124 0.050357 0.0393691 0.0138545 -0.0118442 0.0443476 0.0335864 -0.0183167 -0.0102864 0.0668083 0.0507967 0.0436189 -0.0457396 -0.0467962 -0.0326008 -0.0036259 -0.0097369 0.0251005 0.0213802 0.0180436 -0.0403088 -0.0376483 0.0695397 0.072679 -0.0379194 0.0558865 -0.0485696 -0.052725 -0.0304011
internal_weight=4020 2222 1798 1078 176 382 902 338 314 201 720 564 234 1840 1621 113 151 104 248 194 68 348 272 594 348 219 330 1273 224 50
internal_count=2619 2188 431 311 86 348 225 110 306 193 120 115 60 1840 1621 113 143 104 95 80 42 348 272 99 58 219 55 1273 224 50
is_linear=0
shrinkage=0.05


Tree=26
num_leaves=31
num_cat=0
split_feature=34 35 35 20 22 37 36 35 18 19 36 32 16 35 37 32 19 35 25 4 41 23 32 32 3 24 25 18 7 34
split_gain=2923.46 139.433 120.516 51.6778 33.8711 19.9271 19.1412 17.0374 13.8311 13.4623 10.2522 9.44554 8.34711 7.76358 7.49882 5.95829 4.30358 3.76312 3.04019 2.98177 4.03635 2.1416 2.09148 2.08992 1.68557 1.55189 1.38118 2.09053 1.27095 1.0786
threshold=2.5000000000000004 1.5000000000000002 2.5000000000000004 6.9350000000000014 0.19886141361933568 1.0000000180025095e-35 3.5000000000000004 2.5000000000000004 0.019999999999999702 1.0158826150000002 8.5000000000000018 1.0000000180025095e-35 4.9446429905419711 1.0000000180025095e-35 1.0000000180025095e-35 1.0000000180025095e-35 0.11781601000000001 1.0000000180025095e-35 0.22877619638263938 1.0000000180025095e-35 58.05015002250672 0.0331614405810663 1.0000000180025095e-35 1.0000000180025095e-35 1.0000000180025095e-35 -0.031768159479946594 0.20517799298585984 -0.019999999999999945 1.0000000180025095e-35 1.0000000180025095e-35
decision_type=2 2 2 2 2 2 2 2 2 2 2 2 2 2 2 2 2 2 2 2 2 2 2 2 2 2 2 2 2 2
left_child=1 5 3 4 18 13 -5 11 9 16 12 25 -4 23 -13 -7 -8 -17 -2 20 -11 -19 -15 28 -12 -3 27 -16 -1 -24
right_child=2 7 10 6 -6 15 8 -9 -10 19 24 14 -14 22 26 17 -18 21 -20 -21 -22 -23 29 -25 -26 -27 -28 -29 -30 -31
leaf_value=-0.057850970003915869 -0.039002420380711555 -0.019857346788048746 0.049092619161348085 0.017201006842984094 0.04142274856567383 -0.042691537539164229 0.042016298262799373 0.027689541456026909 0.054212845191800391 0.035027086352174351 0.062378668099984359 -0.02004205235775481 0.064360805034637453 -0.044174483574497769 0.0017163150594569744 -0.037880133965919764 0.027064216114057783 -0.020978140571843024 -0.014164520533416759 0.051590032744825931 0.049027881522973382 -0.0032821345896947951 -0.039530221813705552 -0.045279896666030384 0.068542177536908319 -0.039318445112024036 -0.0030294352228282858 0.019547041915357114 -0.048778356313705445 -0.03435003507387388
leaf_weight=46 28 20 222 90 27 45 61 39 169 111 174 47 150 191 48 29 228 92 22 114 96 21 338 828 306 21 49 25 240 143
leaf_count=46 28 20 37 36 8 45 16 13 35 29 29 47 25 191 48 29 80 92 22 19 16 21 338 828 51 21 49 17 240 143
internal_value=0.000438728 -0.0379168 0.0478392 0.0355543 -0.00370484 -0.0423664 0.039033 -0.00265985 0.0415553 0.0380485 0.0614794 -0.00829616 0.0552491 -0.0439923 -0.00307313 -0.0268372 0.0302202 -0.0218129 -0.0280737 0.0450964 0.0415202 -0.0176895 -0.0397479 -0.0465527 0.0663079 -0.0298252 0.00346407 0.00782273 -0.0502376 -0.0379902
internal_weight=4020 2222 1798 946 77 1973 869 249 779 610 852 210 372 1786 169 187 289 142 50 321 207 113 672 1114 480 41 122 73 286 481
internal_count=2619 2188 431 289 58 1973 231 215 195 160 142 202 62 1786 161 187 96 142 50 64 45 113 672 1114 80 41 114 65 286 481
is_linear=0
shrinkage=0.05


Tree=27
num_leaves=31
num_cat=0
split_feature=34 35 35 34 4 28 37 16 35 36 16 36 32 16 35 37 32 35 25 23 32 32 28 40 3 24 25 23 7 34
split_gain=2638.42 125.838 108.765 45.8887 34.7314 21.5221 17.9842 16.5772 15.3763 14.6228 15.8161 9.25262 8.5246 7.53326 7.00663 6.76769 5.37736 3.39621 2.45663 1.9328 1.88756 1.88615 1.57866 1.56302 1.52122 1.40058 1.24652 1.85691 1.14703 0.973432
threshold=2.5000000000000004 1.5000000000000002 2.5000000000000004 3.5000000000000004 1.0000000180025095e-35 -0.18761461518117434 1.0000000180025095e-35 3.8581913344037493 2.5000000000000004 10.500000000000002 -0.16877715661123271 8.5000000000000018 1.0000000180025095e-35 4.9446429905419711 1.0000000180025095e-35 1.0000000180025095e-35 1.0000000180025095e-35 1.0000000180025095e-35 0.28753805128101423 0.0331614405810663 1.0000000180025095e-35 1.0000000180025095e-35 -0.14522888485458527 1.537548766896818 1.0000000180025095e-35 -0.031768159479946594 0.20517799298585984 -0.0004426867288108704 1.0000000180025095e-35 1.0000000180025095e-35
decision_type=2 2 2 2 2 2 2 2 2 2 2 2 2 2 2 2 2 2 2 2 2 2 2 2 2 2 2 2 2 2
left_child=1 6 3 4 7 9 14 -2 12 10 23 13 25 -4 21 -14 -8 -18 -12 -19 -16 28 -7 -5 -13 -3 27 -17 -1 -22
right_child=2 8 11 5 -6 22 16 -9 -10 -11 18 24 15 -15 20 26 17 19 -20 -21 29 -23 -24 -25 -26 -27 -28 -29 -30 -31
leaf_value=-0.054958421510198842 -0.040358406109245203 -0.018864479437470438 0.046637988681191796 0.045940022880122777 0.029355826506087947 0.047031110326449077 -0.040556959112485254 0.0108815411105752 0.026305066010890867 0.051613856951395677 0.012703759482662594 0.059259737223044208 -0.019039949933265118 0.061142762184143065 -0.041965759721101892 0.0021940118834084155 -0.035986127164857142 -0.019929233646911126 0.02441748808317655 -0.0031180281014669513 -0.037553711116490279 -0.043015902618999069 0.055141446789105736 0.036729832782464868 0.065115066291460022 -0.037352522994790763 -0.0028779635141717688 0.019573254049332304 -0.046339438296854496 -0.032632533195135476
leaf_weight=46 38 20 222 84 86 120 45 27 39 90 56 174 47 150 191 51 29 92 223 21 338 828 120 102 306 21 49 22 240 143
leaf_count=46 38 20 37 17 27 20 45 15 13 15 32 29 47 25 191 51 29 92 77 21 338 828 20 28 51 21 49 14 240 143
internal_value=0.000416792 -0.036021 0.0454472 0.0337766 0.0085085 0.0385759 -0.0402481 -0.0190741 -0.00252685 0.0331661 0.0295955 0.0584055 -0.00788135 0.0524867 -0.0417927 -0.00291948 -0.0254953 -0.0207223 0.0220663 -0.016805 -0.0377605 -0.0442251 0.0510863 0.0408893 0.0629925 -0.028334 0.00329087 0.00743159 -0.0477257 -0.0360907
internal_weight=4020 2222 1798 946 151 795 1973 65 249 555 465 852 210 372 1786 169 187 142 279 113 672 1114 240 186 480 41 122 73 286 481
internal_count=2619 2188 431 289 80 209 1973 53 215 169 154 142 202 62 1786 161 187 142 109 113 672 1114 40 45 80 41 114 65 286 481
is_linear=0
shrinkage=0.05


Tree=28
num_leaves=31
num_cat=0
split_feature=34 35 35 20 2 36 37 35 18 25 37 33 37 16 35 26 23 4 30 18 4 16 33 13 4 25 18 34 31 4
split_gain=2381.17 113.569 98.1606 42.4674 25.4543 16.4787 16.2307 13.8771 11.804 11.006 11.3739 8.35049 7.3682 6.79877 6.32348 4.56487 4.32641 3.60723 2.64869 1.53583 1.53455 1.51216 1.43168 1.4053 1.3909 1.26753 1.54269 0.966988 2.27777 0.859737
threshold=2.5000000000000004 1.5000000000000002 2.5000000000000004 6.9350000000000014 1.0000000180025095e-35 3.5000000000000004 1.0000000180025095e-35 2.5000000000000004 0.019999999999999702 0.31676933681260183 3.5000000000000004 2.5000000000000004 1.0000000180025095e-35 4.9446429905419711 1.0000000180025095e-35 32.899999618530281 0.029480867419006577 1.0000000180025095e-35 -0.36488499999999996 0.0099999999999999516 1.0000000180025095e-35 1.8914601421583412 1.0000000180025095e-35 -0.10000000000000094 1.0000000180025095e-35 0.20517799298585984 -0.019999999999999945 1.0000000180025095e-35 1.0000000180025095e-35 1.0000000180025095e-35
decision_type=2 2 2 2 2 2 2 2 2 2 2 2 2 2 2 2 2 2 2 2 2 2 2 2 2 2 2 2 2 2
left_child=1 6 3 4 -2 -5 14 12 9 10 15 13 19 -4 22 -7 18 21 -8 -3 -20 -14 23 -1 -13 26 -19 28 -16 -30
right_child=2 7 11 5 -6 8 16 -9 -10 -11 -12 24 17 -15 27 -17 -18 25 20 -21 -22 -23 -24 -25 -26 -27 -28 -29 29 -31
leaf_value=-0.054566840905892228 -0.033391909910416281 -0.033575636961243376 0.044306090178790392 0.01498450564013587 0.02414742903551087 0.020329197041872072 -0.036194244413464159 0.024989811426553973 0.049274832528282908 0.025271216200457681 0.045691745337985812 0.057702060945990945 -0.019691014145651171 0.058085626284281412 -0.040192936831100812 0.038477907776832583 -0.00440069604665041 0.0011058790241217902 -0.032279872695604964 -0.016414272459223868 -0.01899677810223797 -0.0025508560494265776 -0.041200995283983494 -0.043816600485067622 0.063226765971029969 -0.0025774613535527063 0.017799578338861467 -0.032712764803613174 -0.038537856539090476 -0.031581446946712964
leaf_weight=38 37 22 222 90 40 82 54 39 169 216 252 294 31 150 263 60 24 31 30 32 79 22 924 152 186 47 25 178 60 171
leaf_count=38 37 22 37 36 21 32 54 13 35 71 42 49 31 25 263 15 24 31 30 32 79 22 924 152 31 47 17 178 60 171
internal_value=0.000395953 -0.0342199 0.0431749 0.0320878 -0.00350134 0.0352412 -0.0382357 -0.00240051 0.0375815 0.0343419 0.0393147 0.0554852 -0.00748729 0.0498624 -0.0397031 0.0279977 -0.0242206 -0.00197698 -0.0271388 -0.0234059 -0.0226527 -0.0125762 -0.0420138 -0.0459666 0.0598429 0.003477 0.00855842 -0.0358725 -0.037011 -0.0333883
internal_weight=4020 2222 1798 946 77 869 1973 249 779 610 394 852 210 372 1786 142 187 156 163 54 109 53 1114 190 480 103 56 672 494 231
internal_count=2619 2188 431 289 58 231 1973 215 195 160 89 142 202 62 1786 47 187 148 163 54 109 53 1114 190 80 95 48 672 494 231
is_linear=0
shrinkage=0.05


Tree=29
num_leaves=31
num_cat=0
split_feature=34 35 35 34 2 28 37 35 33 16 19 33 32 16 35 37 32 35 25 26 32 32 23 28 33 3 24 33 25 18
split_gain=2149.01 102.496 88.59 38.5339 25.4428 17.7511 14.6482 12.5241 12.1001 13.4305 11.7138 7.53631 7.19108 6.13589 5.70694 5.41483 4.51786 2.84884 2.10024 2.07312 1.65332 1.60148 1.56212 1.42147 1.31094 1.29127 1.25424 1.15425 1.02894 1.56623
threshold=2.5000000000000004 1.5000000000000002 2.5000000000000004 3.5000000000000004 1.0000000180025095e-35 -0.18761461518117434 1.0000000180025095e-35 2.5000000000000004 2.5000000000000004 -0.16877715661123271 1.0183859400000002 2.5000000000000004 1.0000000180025095e-35 4.9446429905419711 1.0000000180025095e-35 1.0000000180025095e-35 1.0000000180025095e-35 1.0000000180025095e-35 0.29611782868948827 36.120000839233406 1.0000000180025095e-35 1.0000000180025095e-35 0.0331614405810663 -0.14522888485458527 1.0000000180025095e-35 1.0000000180025095e-35 -0.031768159479946594 1.0000000180025095e-35 0.20517799298585984 -0.019999999999999945
decision_type=2 2 2 2 2 2 2 2 2 2 2 2 2 2 2 2 2 2 2 2 2 2 2 2 2 2 2 2 2 2
left_child=1 6 3 4 10 8 14 12 9 19 -2 13 26 -4 20 -14 -8 -18 -11 -5 24 -16 -19 -7 -1 -13 -3 -23 29 -17
right_child=2 7 11 5 -6 23 16 -9 -10 18 -12 25 15 -15 21 28 17 22 -20 -21 -22 27 -24 -25 -26 -27 -28 -29 -30 -31
leaf_value=-0.051838497895943497 -0.041742424853146082 -0.016936704292893411 0.042090785127502306 0.043769631286462149 0.023764568092503949 0.042394967873891194 -0.036815084748797945 0.02374032170344622 0.046749372482299809 0.01242642343794513 0.0028729340722483975 0.053411644902722592 -0.016975130711464174 0.055181343078613276 -0.037952357046891261 0.0014759492856683211 -0.032614316560071091 -0.017855513662747718 0.022340565779502844 0.032932366195477937 -0.038781048641832558 -0.041421745279256038 -0.0027420920275506521 0.050090942184130349 -0.041865493813830035 0.058806303747339188 -0.034432225780827656 -0.031865230747717341 -0.0026052464707279391 0.016909598649479451
leaf_weight=38 28 20 222 72 92 120 45 39 90 72 31 174 47 150 191 48 29 92 207 114 828 34 21 120 248 306 21 447 49 25
leaf_count=38 28 20 37 13 37 20 45 13 15 38 15 29 47 25 191 48 29 92 71 32 828 34 21 20 248 51 21 447 49 17
internal_value=0.000376155 -0.0325089 0.0410161 0.0304834 0.00732857 0.0348813 -0.0363239 -0.00228049 0.0299682 0.0267202 -0.0183005 0.0527109 -0.00711292 0.0473692 -0.0377179 -0.00255564 -0.0230095 -0.0186346 0.0197821 0.0371274 -0.0399131 -0.0340789 -0.0150468 0.046243 -0.0431906 0.0568507 -0.0258978 -0.0325407 0.00299941 0.00676145
internal_weight=4020 2222 1798 946 151 795 1973 249 555 465 59 852 210 372 1786 169 187 142 279 186 1114 672 113 240 286 480 41 481 122 73
internal_count=2619 2188 431 289 80 209 1973 215 169 154 43 142 202 62 1786 161 187 142 109 45 1114 672 113 40 286 80 41 481 114 65
is_linear=0
shrinkage=0.05


Tree=30
num_leaves=31
num_cat=0
split_feature=35 34 35 37 32 38 33 35 36 34 34 41 36 40 37 35 16 26 2 32 32 23 32 35 32 33 22 38 36 38
split_gain=1900.72 138.511 62.3445 16.8447 15.7797 14.6438 12.5524 16.3061 12.4968 12.4032 10.1868 7.28008 6.40996 5.01164 4.83398 4.74289 3.59287 3.67969 3.48266 3.31468 3.19956 2.11333 1.68434 1.50753 1.3967 1.23895 1.13294 0.963415 0.911032 0.895411
threshold=1.5000000000000002 2.5000000000000004 2.5000000000000004 1.0000000180025095e-35 1.0000000180025095e-35 1.0000000180025095e-35 2.5000000000000004 2.5000000000000004 10.500000000000002 3.5000000000000004 3.5000000000000004 27.821799869537362 2.5000000000000004 0.75560297643301488 1.0000000180025095e-35 1.0000000180025095e-35 4.9446429905419711 25.000000000000004 1.0000000180025095e-35 1.0000000180025095e-35 1.0000000180025095e-35 0.051837764970525176 1.0000000180025095e-35 1.0000000180025095e-35 1.0000000180025095e-35 1.0000000180025095e-35 0.70777678106386099 1.0000000180025095e-35 1.0000000180025095e-35 1.0000000180025095e-35
decision_type=2 2 2 2 2 2 2 2 2 2 2 2 2 2 2 2 2 2 2 2 2 2 2 2 2 2 2 2 2 2
left_child=3 6 4 10 13 8 7 14 -6 -7 15 -4 19 -3 -2 24 21 -18 -11 -5 -16 -13 -17 -21 25 -1 -22 28 -26 -24
right_child=1 2 11 12 5 9 -8 -9 -10 18 -12 16 -14 -15 20 22 17 -19 -20 23 26 -23 29 -25 27 -27 -28 -29 -30 -31
leaf_value=-0.049275423471744247 -0.02251298706168714 0.0012166515574790538 0.041412407093577915 -0.034685685561627759 0.020063921425378686 0.025488210979987075 0.036357817550500236 0.022727690361164236 0.043210917558425516 0.040588712564078713 -0.00091532417018676086 0.044190229574839278 0.0044477668388382251 0.021934711988325473 -0.017867382150143385 -0.036517573470499977 0.051880505184332529 0.063735626339912407 0.051072108227273698 -0.031139029562473299 0.0024341184165045295 0.052192746689825348 -0.032530867699079397 -0.01707432270050049 -0.038610708049397341 -0.039691102408979793 -0.010436802517090525 -0.033443270614312133 -0.033366116638086279 -0.027877969733926634
leaf_weight=39 46 40 180 49 231 108 24 54 78 186 21 120 23 108 32 201 144 120 138 23 92 264 328 111 534 249 21 159 98 151
leaf_count=39 46 28 30 49 79 33 10 18 13 31 21 20 23 36 32 201 24 20 23 23 92 44 328 111 534 249 21 159 98 151
internal_value=0.000621177 0.0352091 0.0404357 -0.0339668 0.0312407 0.0342178 0.00184868 -0.00153181 0.0259069 0.0401624 -0.0355333 0.050308 -0.0204308 0.0163352 -0.00839051 -0.0359466 0.052779 0.0572692 0.0450539 -0.0235576 -0.00391028 0.049692 -0.0326761 -0.0194884 -0.0380077 -0.040989 4.21774e-05 -0.0369222 -0.0377975 -0.0310641
internal_weight=3972 1986 1717 1986 889 741 269 245 309 432 1780 828 206 148 191 1759 648 264 324 183 145 384 680 134 1079 288 113 791 632 479
internal_count=2586 600 381 1986 243 179 219 209 92 87 1780 138 206 64 191 1759 108 44 54 183 145 64 680 134 1079 288 113 791 632 479
is_linear=0
shrinkage=0.05


Tree=31
num_leaves=31
num_cat=0
split_feature=35 34 38 32 37 36 35 38 34 36 36 25 27 36 37 35 34 16 32 32 4 16 41 32 35 32 17 18 38 36
split_gain=1715.4 125.006 56.5261 16.7287 15.2024 11.3285 14.7163 11.2378 9.19356 8.74224 5.78499 5.58718 4.88172 4.93072 4.36267 4.28046 3.54416 10.4529 2.99149 2.8876 2.68491 2.52137 1.64961 1.52012 1.36055 1.26052 0.899483 0.888959 0.869482 0.822207
threshold=1.5000000000000002 2.5000000000000004 2.5000000000000004 1.0000000180025095e-35 1.0000000180025095e-35 5.0000000000000009 2.5000000000000004 1.0000000180025095e-35 3.5000000000000004 10.500000000000002 2.5000000000000004 0.35548037273708655 2.0549993515014671 8.5000000000000018 1.0000000180025095e-35 1.0000000180025095e-35 3.5000000000000004 4.3339814909493244 1.0000000180025095e-35 1.0000000180025095e-35 1.0000000180025095e-35 3.7838088617633829 48.134401245117196 1.0000000180025095e-35 1.0000000180025095e-35 1.0000000180025095e-35 1.0781794971655991 0.0099999999999999516 1.0000000180025095e-35 1.0000000180025095e-35
decision_type=2 2 2 2 2 2 2 2 2 2 2 2 2 2 2 2 2 2 2 2 2 2 2 2 2 2 2 2 2 2
left_child=4 5 3 11 8 6 14 9 15 21 18 -3 13 -4 27 25 17 -9 -6 -16 -14 -5 -18 -17 -20 -1 -21 -2 29 -27
right_child=1 2 12 7 10 -7 -8 16 -10 -11 -12 -13 20 -15 19 23 22 -19 24 26 -22 -23 -24 -25 -26 28 -28 -29 -30 -31
leaf_value=-0.038939530743906901 -0.029312414936721327 0.0010522068660382344 0.037477545038102168 0.01907365160683791 -0.032951401204478988 0.034539926921327908 0.021591305843106024 0.019951864973538454 -0.00086955803867784292 0.041050371145590764 0.0042253787062414318 0.022042477423069525 0.049422138002183702 0.050130143550911332 -0.016974012879654766 -0.03469169360784749 0.04579283956325416 0.041349828243255615 -0.029582078560538919 0.0021087836265133355 0.058132285359262049 0.030601223830192811 0.038433914052115548 -0.029510882923025679 -0.016220606668843878 -0.036680172964205011 -0.0095794571563601501 -0.015291123693952195 -0.031771107008622131 -0.031697809909071242
leaf_weight=288 20 46 126 192 49 24 54 90 21 78 23 102 180 198 32 201 132 156 23 93 174 63 180 479 111 534 20 26 159 98
leaf_count=288 20 30 21 66 49 10 18 30 21 13 23 34 30 33 32 201 22 26 23 93 29 17 30 479 111 534 20 26 159 98
internal_value=0.000590119 0.0334487 0.0384139 0.0310854 -0.0322684 0.00175625 -0.00145522 0.0336711 -0.0337566 0.0264022 -0.0194093 0.0155185 0.0496445 0.0452097 -0.00797099 -0.0341493 0.038009 0.0335213 -0.0223797 -0.00371476 0.0537034 0.0219216 0.0415473 -0.0310423 -0.018514 -0.0361073 4.00684e-05 -0.0213873 -0.0350761 -0.0359076
internal_weight=3972 1986 1717 1039 1986 269 245 891 1780 333 206 148 678 324 191 1759 558 246 183 145 354 255 312 680 134 1079 113 46 791 632
internal_count=2586 600 381 268 1986 219 209 204 1780 96 206 64 113 54 191 1759 108 56 183 145 59 83 52 680 134 1079 113 46 791 632
is_linear=0
shrinkage=0.05


Tree=32
num_leaves=31
num_cat=0
split_feature=29 38 30 37 37 32 36 37 36 4 32 41 23 24 36 36 36 38 36 24 23 13 33 31 19 24 1 23 32 19
split_gain=1506.16 93.5612 50.1444 34.8602 28.4774 9.4367 9.35407 8.63398 10.6969 9.68417 9.36522 5.59257 5.26248 5.02884 4.81913 4.33751 3.67874 3.86463 2.89258 1.99888 1.7723 1.47924 1.29349 1.34793 1.24894 1.22019 0.895398 0.884709 0.828826 0.822136
threshold=-0.0011083117356170738 2.5000000000000004 -0.17407499999999995 1.0000000180025095e-35 2.5000000000000004 1.0000000180025095e-35 2.5000000000000004 3.5000000000000004 5.0000000000000009 1.0000000180025095e-35 1.0000000180025095e-35 26.820499086380007 0.030502283316319104 -0.020815329836582849 1.5000000000000002 8.5000000000000018 2.5000000000000004 1.5000000000000002 1.0000000180025095e-35 -0.066559567451160304 -0.025872410991493951 0.59999999999999976 1.0000000180025095e-35 1.0000000180025095e-35 1.3046160550000001 -0.10460639051237895 1.0000000180025095e-35 -0.02730318288130856 1.0000000180025095e-35 0.98732199500000017
decision_type=2 2 2 2 2 2 2 2 2 2 2 2 2 2 2 2 2 2 2 2 2 2 2 2 2 2 2 2 2 2
left_child=1 2 4 16 13 -5 25 8 11 12 -9 -8 -10 19 29 -3 17 18 22 -1 -12 -17 23 -2 -16 -4 -24 -26 -20 -7
right_child=3 15 6 5 -6 14 7 10 9 -11 20 -13 -14 -15 24 21 -18 -19 28 -21 -22 -23 26 -25 27 -27 -28 -29 -30 -31
leaf_value=0.0028092091835181538 -0.041308101934605629 0.040807840018205241 0.016207811513612436 -0.029951519479877071 0.028902921646833418 -0.022530526504851878 -0.0053098339540883907 0.020953683505455654 0.008813112399034333 0.038909290193700471 0.03307320185697795 0.018365405489866798 0.028800107863469 -0.031652970632185806 0.0034984378408795844 0.053745294653851056 -0.013252050386598477 -0.02581605205410405 -0.033350408242808452 -0.014863523224873158 0.039605675935745238 0.047627742605647824 -0.033858821409308258 -0.033407798409461974 0.00017164621502161026 0.00331330475746654 -0.028811393724274395 -0.014522271000203632 -0.027203243186940319 -0.012140143678543415
leaf_weight=24 116 213 43 57 50 32 30 120 57 147 183 148 78 37 75 138 26 209 72 48 240 348 933 101 20 32 97 21 230 47
leaf_count=20 116 39 15 57 18 32 30 40 23 25 37 54 23 37 69 23 26 209 72 48 40 58 933 101 20 26 97 21 230 47
internal_value=0.000560612 0.0321352 0.0238725 -0.0294631 -0.00233989 -0.0120554 0.0277387 0.0290124 0.0239722 0.0300299 0.0332821 0.0143752 0.0203612 -0.0166714 -0.00682418 0.0467573 -0.0319221 -0.0321982 -0.0330593 -0.00897261 0.0367796 0.0493648 -0.0341226 -0.037631 -0.000337517 0.0107062 -0.0333835 -0.00735451 -0.0286688 -0.0163489
internal_weight=3972 1936 1237 2036 159 252 1078 1003 460 282 543 178 135 109 195 699 1784 1758 1549 72 423 486 1247 217 116 75 1030 41 302 79
internal_count=2586 556 436 2030 123 246 313 272 155 71 117 84 46 105 189 120 1784 1758 1549 68 77 81 1247 217 110 41 1030 41 302 79
is_linear=0
shrinkage=0.05


Tree=33
num_leaves=31
num_cat=0
split_feature=35 38 9 32 28 20 11 35 38 8 25 35 27 38 18 23 29 4 26 16 32 38 26 14 33 27 28 16 32 20
split_gain=1399.08 85.4898 38.5129 19.3481 22.1593 11.5217 9.22194 19.3133 10.3756 7.36625 5.34736 3.95403 3.67628 3.25028 3.11699 2.90116 2.34564 2.22152 1.69519 1.67661 1.46513 1.56867 1.39384 1.25951 1.05432 1.01735 0.991026 0.963621 0.941865 0.62536
threshold=1.5000000000000002 2.5000000000000004 1.0000000180025095e-35 1.0000000180025095e-35 -0.32343547182360782 6.2400000000000011 1.0000000180025095e-35 2.5000000000000004 1.0000000180025095e-35 1.0000000180025095e-35 0.24314062256542276 1.0000000180025095e-35 3.8800010681152366 5.0000000000000009 -0.014999999999999949 -0.0091851818774331111 0.016883068477513623 1.0000000180025095e-35 26.365000724792484 3.9151645267501487 1.0000000180025095e-35 1.0000000180025095e-35 30.755000114440922 2.4050000000000007 1.0000000180025095e-35 -2.4400000572204594 -0.11727879327299452 0.88420762002167097 1.0000000180025095e-35 5.5950000000000015
decision_type=2 2 2 2 2 2 2 2 2 2 2 2 2 2 2 2 2 2 2 2 2 2 2 2 2 2 2 2 2 2
left_child=5 2 10 4 -4 11 7 19 9 -8 15 24 13 -3 16 23 -7 -14 27 -5 -13 26 -10 -2 28 -6 -22 -16 -1 -23
right_child=1 12 3 6 25 14 8 -9 22 -11 -12 20 17 -15 18 -17 -18 -19 -20 -21 21 29 -24 -25 -26 -27 -28 -29 -30 -31
leaf_value=-0.042799271528537464 -0.011175406598688467 0.035902885877328115 0.020825575468108412 -0.010605939718620254 -0.012391204278260591 -0.0018523622558198193 0.017129339413773835 0.030056119243303939 0.034632936285601726 0.032138887001776403 0.012416400887072087 -0.031066870733219034 0.044538314041050006 0.045100071253599945 -0.016782509994048341 -0.019466680874500208 -0.017985950788141979 0.053033216448797695 -0.010096535645716359 0.0047895448088335494 -0.023360327134529749 -0.023519331751198608 0.041046788295110069 0.0031548246109868276 -0.031793750795996049 -0.027612750620945644 -0.030243798185393453 -0.027333844271163612 -0.034128332906549083 -0.015231643368800483
leaf_weight=39 23 173 127 28 21 33 165 150 288 162 50 204 174 216 26 34 71 138 20 48 72 145 120 46 870 23 191 129 159 27
leaf_count=39 23 33 43 28 21 33 55 34 54 37 26 204 29 36 26 34 71 24 20 36 72 145 20 44 870 23 191 129 159 27
internal_value=0.000532582 0.0302073 0.0225453 0.0257276 0.0102312 -0.0291422 0.028485 0.019652 0.031201 0.0245653 -0.000999735 -0.0306818 0.0442526 0.0410098 -0.0197221 -0.00751242 -0.0128666 0.0482957 -0.0237962 -0.000882476 -0.0275707 -0.0259312 0.0365194 -0.00162192 -0.0325432 -0.0203479 -0.0283593 -0.0255639 -0.0358362 -0.0222184
internal_weight=3972 1986 1285 1132 171 1986 961 226 735 327 153 1707 701 389 279 103 104 312 175 76 639 435 408 69 1068 44 263 155 198 172
internal_count=2586 600 478 351 87 1986 264 98 166 92 127 1707 122 69 279 101 104 53 175 64 639 435 74 67 1068 44 263 155 198 172
is_linear=0
shrinkage=0.05


Tree=34
num_leaves=31
num_cat=0
split_feature=35 34 35 37 34 28 33 35 8 22 21 34 41 36 39 21 37 35 18 37 4 21 23 17 20 25 35 33 4 18
